<?xml version="1.0"?>
<opencv_storage>
<cascade>
  <stageType>BOOST</stageType>
  <featureType>HAAR</featureType>
  <height>24</height>
  <width>24</width>
  <stageParams>
    <boostType>GAB</boostType>
    <minHitRate>9.9500000476837158e-01</minHitRate>
    <maxFalseAlarm>5.0000000000000000e-01</maxFalseAlarm>
    <weightTrimRate>9.4999998807907104e-01</weightTrimRate>
    <maxDepth>1</maxDepth>
    <maxWeakCount>100</maxWeakCount></stageParams>
  <featureParams>
    <maxCatCount>0</maxCatCount>
    <featSize>1</featSize>
    <mode>BASIC</mode></featureParams>
  <stageNum>20</stageNum>
  <stages>
    <!-- stage 0 -->
    <_>
      <maxWeakCount>14</maxWeakCount>
      <stageThreshold>-1.4422214031219482e+00</stageThreshold>
      <weakClassifiers>
        <_>
          <internalNodes>
            0 -1 119 3.3000734448432922e-01</internalNodes>
          <leafValues>
            -4.6948739886283875e-01 6.9640064239501953e-01</leafValues></_>
        <_>
          <internalNodes>
            0 -1 125 -1.6397595405578613e-02</internalNodes>
          <leafValues>
            5.9110361337661743e-01 -2.4426099658012390e-01</leafValues></_>
        <_>
          <internalNodes>
            0 -1 175 -1.8689800053834915e-02</internalNodes>
          <leafValues>
            6.1422461271286011e-01 -2.5010597705841064e-01</leafValues></_>
        <_>
          <internalNodes>
            0 -1 293 -1.3223211281001568e-02</internalNodes>
          <leafValues>
            5.9440332651138306e-01 -2.1479511260986328e-01</leafValues></_>
        <_>
          <internalNodes>
            0 -1 553 7.7015627175569534e-03</internalNodes>
          <leafValues>
            -2.1328340470790863e-01 5.9796214103698730e-01</leafValues></_>
        <_>
          <internalNodes>
            0 -1 409 1.4794645830988884e-03</internalNodes>
          <leafValues>
            1.9414053857326508e-01 -5.9540528059005737e-01</leafValues></_>
        <_>
          <internalNodes>
            0 -1 368 3.0176285654306412e-02</internalNodes>
          <leafValues>
            2.7359050512313843e-01 -4.2692160606384277e-01</leafValues></_>
        <_>
          <internalNodes>
            0 -1 33 1.0541172698140144e-02</internalNodes>
          <leafValues>
            -2.2194299101829529e-01 4.9141305685043335e-01</leafValues></_>
        <_>
          <internalNodes>
            0 -1 208 -3.9153583347797394e-03</internalNodes>
          <leafValues>
            4.3736851215362549e-01 -1.5047252178192139e-01</leafValues></_>
        <_>
          <internalNodes>
            0 -1 583 -2.6938347145915031e-03</internalNodes>
          <leafValues>
            4.9311122298240662e-01 -1.8160091340541840e-01</leafValues></_>
        <_>
          <internalNodes>
            0 -1 528 5.9833131672348827e-05</internalNodes>
          <leafValues>
            2.4661155045032501e-01 -3.4252318739891052e-01</leafValues></_>
        <_>
          <internalNodes>
            0 -1 424 -5.1869861781597137e-03</internalNodes>
          <leafValues>
            3.4392988681793213e-01 -2.6574537158012390e-01</leafValues></_>
        <_>
          <internalNodes>
            0 -1 16 1.0341714136302471e-02</internalNodes>
          <leafValues>
            -6.2083374708890915e-02 8.4794819355010986e-01</leafValues></_>
        <_>
          <internalNodes>
            0 -1 290 -1.6915615648031235e-02</internalNodes>
          <leafValues>
            5.0548547506332397e-01 -1.2901587784290314e-01</leafValues></_></weakClassifiers></_>
    <!-- stage 1 -->
    <_>
      <maxWeakCount>15</maxWeakCount>
      <stageThreshold>-9.5694744586944580e-01</stageThreshold>
      <weakClassifiers>
        <_>
          <internalNodes>
            0 -1 172 9.4456255435943604e-02</internalNodes>
          <leafValues>
            -5.2284264564514160e-01 2.5925925374031067e-01</leafValues></_>
        <_>
          <internalNodes>
            0 -1 581 -2.3314982652664185e-02</internalNodes>
          <leafValues>
            5.0781124830245972e-01 -2.3579959571361542e-01</leafValues></_>
        <_>
          <internalNodes>
            0 -1 88 -5.5955324321985245e-02</internalNodes>
          <leafValues>
            5.4926967620849609e-01 -1.8952605128288269e-01</leafValues></_>
        <_>
          <internalNodes>
            0 -1 220 4.2358793318271637e-02</internalNodes>
          <leafValues>
            -2.0525398850440979e-01 5.8775371313095093e-01</leafValues></_>
        <_>
          <internalNodes>
            0 -1 333 -6.8876743316650391e-03</internalNodes>
          <leafValues>
            4.0623965859413147e-01 -2.0622372627258301e-01</leafValues></_>
        <_>
          <internalNodes>
            0 -1 167 -4.9503636546432972e-03</internalNodes>
          <leafValues>
            5.0074887275695801e-01 -1.6237083077430725e-01</leafValues></_>
        <_>
          <internalNodes>
            0 -1 0 1.0640002787113190e-02</internalNodes>
          <leafValues>
            -8.5311360657215118e-02 5.9368950128555298e-01</leafValues></_>
        <_>
          <internalNodes>
            0 -1 297 2.1872399374842644e-03</internalNodes>
          <leafValues>
            -1.3666413724422455e-01 5.6040173768997192e-01</leafValues></_>
        <_>
          <internalNodes>
            0 -1 334 9.2738890089094639e-04</internalNodes>
          <leafValues>
            -1.6500377655029297e-01 5.1668661832809448e-01</leafValues></_>
        <_>
          <internalNodes>
            0 -1 617 9.0237930417060852e-03</internalNodes>
          <leafValues>
            -8.5250429809093475e-02 7.5531196594238281e-01</leafValues></_>
        <_>
          <internalNodes>
            0 -1 311 1.9468896090984344e-02</internalNodes>
          <leafValues>
            9.7968831658363342e-02 -7.6397365331649780e-01</leafValues></_>
        <_>
          <internalNodes>
            0 -1 323 -9.4194173812866211e-02</internalNodes>
          <leafValues>
            -6.1365371942520142e-01 1.0271744430065155e-01</leafValues></_>
        <_>
          <internalNodes>
            0 -1 573 1.6346448101103306e-03</internalNodes>
          <leafValues>
            -1.0731024295091629e-01 6.5388190746307373e-01</leafValues></_>
        <_>
          <internalNodes>
            0 -1 191 -1.6538292402401567e-03</internalNodes>
          <leafValues>
            6.1885535717010498e-01 -5.7633627206087112e-02</leafValues></_>
        <_>
          <internalNodes>
            0 -1 71 -6.1315908096730709e-03</internalNodes>
          <leafValues>
            3.9970684051513672e-01 -1.5576319396495819e-01</leafValues></_></weakClassifiers></_>
    <!-- stage 2 -->
    <_>
      <maxWeakCount>24</maxWeakCount>
      <stageThreshold>-1.0896706581115723e+00</stageThreshold>
      <weakClassifiers>
        <_>
          <internalNodes>
            0 -1 199 -3.7939585745334625e-02</internalNodes>
          <leafValues>
            3.9698493480682373e-01 -4.1791045665740967e-01</leafValues></_>
        <_>
          <internalNodes>
            0 -1 118 2.2940391302108765e-01</internalNodes>
          <leafValues>
            -1.5115712583065033e-01 5.5502003431320190e-01</leafValues></_>
        <_>
          <internalNodes>
            0 -1 330 -4.3734461069107056e-02</internalNodes>
          <leafValues>
            4.2554080486297607e-01 -1.9779139757156372e-01</leafValues></_>
        <_>
          <internalNodes>
            0 -1 414 3.7949224933981895e-03</internalNodes>
          <leafValues>
            1.3028736412525177e-01 -5.2892148494720459e-01</leafValues></_>
        <_>
          <internalNodes>
            0 -1 425 4.1329957544803619e-02</internalNodes>
          <leafValues>
            -1.0712284594774246e-01 5.9568065404891968e-01</leafValues></_>
        <_>
          <internalNodes>
            0 -1 369 1.5066626667976379e-01</internalNodes>
          <leafValues>
            6.0797479003667831e-02 -6.7730730772018433e-01</leafValues></_>
        <_>
          <internalNodes>
            0 -1 548 -3.1144939363002777e-02</internalNodes>
          <leafValues>
            2.7758997678756714e-01 -2.0686997473239899e-01</leafValues></_>
        <_>
          <internalNodes>
            0 -1 24 3.8500367663800716e-03</internalNodes>
          <leafValues>
            -1.2725125253200531e-01 5.0411146879196167e-01</leafValues></_>
        <_>
          <internalNodes>
            0 -1 91 4.8665292561054230e-03</internalNodes>
          <leafValues>
            -1.3495160639286041e-01 4.3199738860130310e-01</leafValues></_>
        <_>
          <internalNodes>
            0 -1 339 7.0567452348768711e-04</internalNodes>
          <leafValues>
            1.4867421984672546e-01 -3.4999781847000122e-01</leafValues></_>
        <_>
          <internalNodes>
            0 -1 215 -2.0647228229790926e-03</internalNodes>
          <leafValues>
            2.6843136548995972e-01 -1.9254817068576813e-01</leafValues></_>
        <_>
          <internalNodes>
            0 -1 110 -2.8574345633387566e-03</internalNodes>
          <leafValues>
            3.1386876106262207e-01 -1.7222213745117188e-01</leafValues></_>
        <_>
          <internalNodes>
            0 -1 373 5.5939227342605591e-02</internalNodes>
          <leafValues>
            5.9545096009969711e-02 -7.9406118392944336e-01</leafValues></_>
        <_>
          <internalNodes>
            0 -1 346 3.1607467681169510e-02</internalNodes>
          <leafValues>
            -1.5800312161445618e-01 3.1392601132392883e-01</leafValues></_>
        <_>
          <internalNodes>
            0 -1 362 4.5326058752834797e-03</internalNodes>
          <leafValues>
            1.2328149378299713e-01 -4.4445466995239258e-01</leafValues></_>
        <_>
          <internalNodes>
            0 -1 89 -9.7432017326354980e-02</internalNodes>
          <leafValues>
            -7.4495822191238403e-01 5.6112304329872131e-02</leafValues></_>
        <_>
          <internalNodes>
            0 -1 584 6.9804652594029903e-03</internalNodes>
          <leafValues>
            -1.0517511516809464e-01 5.1230978965759277e-01</leafValues></_>
        <_>
          <internalNodes>
            0 -1 60 -1.4533032663166523e-03</internalNodes>
          <leafValues>
            4.4787639379501343e-01 -9.3221731483936310e-02</leafValues></_>
        <_>
          <internalNodes>
            0 -1 384 -2.5264855939894915e-03</internalNodes>
          <leafValues>
            3.3917033672332764e-01 -1.3401190936565399e-01</leafValues></_>
        <_>
          <internalNodes>
            0 -1 349 2.7301400899887085e-02</internalNodes>
          <leafValues>
            -2.4895437061786652e-01 2.1899612247943878e-01</leafValues></_>
        <_>
          <internalNodes>
            0 -1 336 5.9341336600482464e-04</internalNodes>
          <leafValues>
            3.0300909280776978e-01 -2.2630967199802399e-01</leafValues></_>
        <_>
          <internalNodes>
            0 -1 178 -2.9328346252441406e-02</internalNodes>
          <leafValues>
            2.8688222169876099e-01 -2.1662262082099915e-01</leafValues></_>
        <_>
          <internalNodes>
            0 -1 121 -4.0556024760007858e-03</internalNodes>
          <leafValues>
            4.7636598348617554e-01 -1.0868608951568604e-01</leafValues></_>
        <_>
          <internalNodes>
            0 -1 554 -2.7342876419425011e-02</internalNodes>
          <leafValues>
            4.4674691557884216e-01 -1.0199387371540070e-01</leafValues></_></weakClassifiers></_>
    <!-- stage 3 -->
    <_>
      <maxWeakCount>29</maxWeakCount>
      <stageThreshold>-1.1823563575744629e+00</stageThreshold>
      <weakClassifiers>
        <_>
          <internalNodes>
            0 -1 163 -2.5986930355429649e-02</internalNodes>
          <leafValues>
            3.6375159025192261e-01 -3.8832253217697144e-01</leafValues></_>
        <_>
          <internalNodes>
            0 -1 326 -1.7213910818099976e-02</internalNodes>
          <leafValues>
            4.7420379519462585e-01 -1.7865760624408722e-01</leafValues></_>
        <_>
          <internalNodes>
            0 -1 329 2.1550580859184265e-02</internalNodes>
          <leafValues>
            -1.7050182819366455e-01 3.4072279930114746e-01</leafValues></_>
        <_>
          <internalNodes>
            0 -1 446 5.3836321458220482e-03</internalNodes>
          <leafValues>
            -1.8026967346668243e-01 2.8088015317916870e-01</leafValues></_>
        <_>
          <internalNodes>
            0 -1 64 7.8700043261051178e-02</internalNodes>
          <leafValues>
            6.5593048930168152e-02 -6.3968658447265625e-01</leafValues></_>
        <_>
          <internalNodes>
            0 -1 314 2.0529422909021378e-02</internalNodes>
          <leafValues>
            7.4387542903423309e-02 -8.1026923656463623e-01</leafValues></_>
        <_>
          <internalNodes>
            0 -1 303 5.5242031812667847e-03</internalNodes>
          <leafValues>
            -8.7228134274482727e-02 5.3048074245452881e-01</leafValues></_>
        <_>
          <internalNodes>
            0 -1 431 1.9371178001165390e-02</internalNodes>
          <leafValues>
            -1.3384507596492767e-01 3.6599314212799072e-01</leafValues></_>
        <_>
          <internalNodes>
            0 -1 185 -8.4430277347564697e-02</internalNodes>
          <leafValues>
            -6.0280328989028931e-01 9.0439625084400177e-02</leafValues></_>
        <_>
          <internalNodes>
            0 -1 272 8.3823886234313250e-04</internalNodes>
          <leafValues>
            1.4098349213600159e-01 -3.3396369218826294e-01</leafValues></_>
        <_>
          <internalNodes>
            0 -1 621 3.5572180058807135e-03</internalNodes>
          <leafValues>
            -8.7965853512287140e-02 5.1732391119003296e-01</leafValues></_>
        <_>
          <internalNodes>
            0 -1 488 2.2809805814176798e-03</internalNodes>
          <leafValues>
            1.0534640401601791e-01 -3.9083659648895264e-01</leafValues></_>
        <_>
          <internalNodes>
            0 -1 256 3.9164042100310326e-03</internalNodes>
          <leafValues>
            -8.6108826100826263e-02 4.7520479559898376e-01</leafValues></_>
        <_>
          <internalNodes>
            0 -1 480 -1.8746936693787575e-03</internalNodes>
          <leafValues>
            3.0377358198165894e-01 -1.5342374145984650e-01</leafValues></_>
        <_>
          <internalNodes>
            0 -1 444 -4.2491465806961060e-02</internalNodes>
          <leafValues>
            -4.9140492081642151e-01 1.1494312435388565e-01</leafValues></_>
        <_>
          <internalNodes>
            0 -1 144 -2.4200532585382462e-02</internalNodes>
          <leafValues>
            4.0384030342102051e-01 -1.2930117547512054e-01</leafValues></_>
        <_>
          <internalNodes>
            0 -1 298 -7.3392334161326289e-04</internalNodes>
          <leafValues>
            3.0778241157531738e-01 -1.5622900426387787e-01</leafValues></_>
        <_>
          <internalNodes>
            0 -1 535 -1.6020955517888069e-03</internalNodes>
          <leafValues>
            3.2883253693580627e-01 -1.3165262341499329e-01</leafValues></_>
        <_>
          <internalNodes>
            0 -1 26 5.8824481675401330e-04</internalNodes>
          <leafValues>
            1.8018364906311035e-01 -2.5893366336822510e-01</leafValues></_>
        <_>
          <internalNodes>
            0 -1 566 -7.0036191027611494e-04</internalNodes>
          <leafValues>
            3.7467065453529358e-01 -1.0206145793199539e-01</leafValues></_>
        <_>
          <internalNodes>
            0 -1 492 -2.5443546473979950e-04</internalNodes>
          <leafValues>
            -3.0805349349975586e-01 1.4081242680549622e-01</leafValues></_>
        <_>
          <internalNodes>
            0 -1 92 -4.2202244512736797e-03</internalNodes>
          <leafValues>
            3.8741821050643921e-01 -1.1013543605804443e-01</leafValues></_>
        <_>
          <internalNodes>
            0 -1 2 1.0044414550065994e-02</internalNodes>
          <leafValues>
            -1.4735226333141327e-01 2.7632498741149902e-01</leafValues></_>
        <_>
          <internalNodes>
            0 -1 392 1.4517367817461491e-03</internalNodes>
          <leafValues>
            9.6972949802875519e-02 -4.5196360349655151e-01</leafValues></_>
        <_>
          <internalNodes>
            0 -1 114 -1.3449504971504211e-01</internalNodes>
          <leafValues>
            -8.2927548885345459e-01 4.0544696152210236e-02</leafValues></_>
        <_>
          <internalNodes>
            0 -1 381 1.5972664952278137e-01</internalNodes>
          <leafValues>
            -1.7865869402885437e-01 2.5617811083793640e-01</leafValues></_>
        <_>
          <internalNodes>
            0 -1 455 1.0477469768375158e-03</internalNodes>
          <leafValues>
            2.7847021818161011e-01 -1.6015779972076416e-01</leafValues></_>
        <_>
          <internalNodes>
            0 -1 524 -3.0832244083285332e-03</internalNodes>
          <leafValues>
            5.3777134418487549e-01 -8.5542209446430206e-02</leafValues></_>
        <_>
          <internalNodes>
            0 -1 560 -2.0955419167876244e-03</internalNodes>
          <leafValues>
            3.1688469648361206e-01 -1.2123998254537582e-01</leafValues></_></weakClassifiers></_>
    <!-- stage 4 -->
    <_>
      <maxWeakCount>28</maxWeakCount>
      <stageThreshold>-9.5236998796463013e-01</stageThreshold>
      <weakClassifiers>
        <_>
          <internalNodes>
            0 -1 112 6.7034935951232910e-01</internalNodes>
          <leafValues>
            -2.3045547306537628e-01 5.2141058444976807e-01</leafValues></_>
        <_>
          <internalNodes>
            0 -1 367 -1.3676526956260204e-02</internalNodes>
          <leafValues>
            2.7040892839431763e-01 -2.0335246622562408e-01</leafValues></_>
        <_>
          <internalNodes>
            0 -1 359 7.5056023895740509e-02</internalNodes>
          <leafValues>
            7.1358762681484222e-02 -7.4561083316802979e-01</leafValues></_>
        <_>
          <internalNodes>
            0 -1 465 2.4245488457381725e-03</internalNodes>
          <leafValues>
            1.0166651010513306e-01 -4.4262865185737610e-01</leafValues></_>
        <_>
          <internalNodes>
            0 -1 556 1.2069229036569595e-02</internalNodes>
          <leafValues>
            -1.3496796786785126e-01 3.8311490416526794e-01</leafValues></_>
        <_>
          <internalNodes>
            0 -1 430 -6.7488225176930428e-03</internalNodes>
          <leafValues>
            2.7842500805854797e-01 -2.2322171926498413e-01</leafValues></_>
        <_>
          <internalNodes>
            0 -1 537 8.6843147873878479e-03</internalNodes>
          <leafValues>
            -1.1961790919303894e-01 3.6769771575927734e-01</leafValues></_>
        <_>
          <internalNodes>
            0 -1 555 -1.4507263898849487e-02</internalNodes>
          <leafValues>
            3.6811131238937378e-01 -1.1173958331346512e-01</leafValues></_>
        <_>
          <internalNodes>
            0 -1 197 7.2636845288798213e-04</internalNodes>
          <leafValues>
            -6.2795922160148621e-02 5.1884216070175171e-01</leafValues></_>
        <_>
          <internalNodes>
            0 -1 44 4.5516313984990120e-03</internalNodes>
          <leafValues>
            -9.7460880875587463e-02 4.4389322400093079e-01</leafValues></_>
        <_>
          <internalNodes>
            0 -1 260 1.4155602455139160e-01</internalNodes>
          <leafValues>
            -1.1837445199489594e-01 3.4881436824798584e-01</leafValues></_>
        <_>
          <internalNodes>
            0 -1 151 -8.6389500647783279e-03</internalNodes>
          <leafValues>
            3.0252647399902344e-01 -1.7772279679775238e-01</leafValues></_>
        <_>
          <internalNodes>
            0 -1 404 4.2385952547192574e-03</internalNodes>
          <leafValues>
            -7.5649604201316833e-02 5.3939795494079590e-01</leafValues></_>
        <_>
          <internalNodes>
            0 -1 389 5.1598128629848361e-04</internalNodes>
          <leafValues>
            1.1943358182907104e-01 -3.4296634793281555e-01</leafValues></_>
        <_>
          <internalNodes>
            0 -1 302 8.2991216331720352e-03</internalNodes>
          <leafValues>
            -1.3874064385890961e-01 3.2346805930137634e-01</leafValues></_>
        <_>
          <internalNodes>
            0 -1 360 2.4979453533887863e-02</internalNodes>
          <leafValues>
            7.2355404496192932e-02 -7.9329097270965576e-01</leafValues></_>
        <_>
          <internalNodes>
            0 -1 192 -1.0002085473388433e-03</internalNodes>
          <leafValues>
            3.2129484415054321e-01 -1.4387467503547668e-01</leafValues></_>
        <_>
          <internalNodes>
            0 -1 539 -4.0100145270116627e-04</internalNodes>
          <leafValues>
            -2.2811253368854523e-01 1.7975768446922302e-01</leafValues></_>
        <_>
          <internalNodes>
            0 -1 626 2.1395919611677527e-04</internalNodes>
          <leafValues>
            1.0779073089361191e-01 -3.3949813246726990e-01</leafValues></_>
        <_>
          <internalNodes>
            0 -1 604 -7.2759445756673813e-03</internalNodes>
          <leafValues>
            4.3413913249969482e-01 -8.6322911083698273e-02</leafValues></_>
        <_>
          <internalNodes>
            0 -1 525 -7.9604540951550007e-04</internalNodes>
          <leafValues>
            4.3163841962814331e-01 -9.2703402042388916e-02</leafValues></_>
        <_>
          <internalNodes>
            0 -1 308 4.1805304586887360e-02</internalNodes>
          <leafValues>
            5.6593950837850571e-02 -6.9621336460113525e-01</leafValues></_>
        <_>
          <internalNodes>
            0 -1 176 5.7817529886960983e-02</internalNodes>
          <leafValues>
            -1.8595820665359497e-01 2.3937565088272095e-01</leafValues></_>
        <_>
          <internalNodes>
            0 -1 184 -5.9778885915875435e-03</internalNodes>
          <leafValues>
            3.7755405902862549e-01 -1.4785559475421906e-01</leafValues></_>
        <_>
          <internalNodes>
            0 -1 49 2.9684100300073624e-02</internalNodes>
          <leafValues>
            -1.6302420198917389e-01 2.8635737299919128e-01</leafValues></_>
        <_>
          <internalNodes>
            0 -1 203 -1.8205402884632349e-03</internalNodes>
          <leafValues>
            4.1876092553138733e-01 -1.1697760224342346e-01</leafValues></_>
        <_>
          <internalNodes>
            0 -1 503 1.1978190159425139e-03</internalNodes>
          <leafValues>
            -1.0675311833620071e-01 4.0687248110771179e-01</leafValues></_>
        <_>
          <internalNodes>
            0 -1 457 -7.2027428541332483e-04</internalNodes>
          <leafValues>
            -3.4640905261039734e-01 1.2756311893463135e-01</leafValues></_></weakClassifiers></_>
    <!-- stage 5 -->
    <_>
      <maxWeakCount>35</maxWeakCount>
      <stageThreshold>-9.6152824163436890e-01</stageThreshold>
      <weakClassifiers>
        <_>
          <internalNodes>
            0 -1 196 -1.1199046671390533e-01</internalNodes>
          <leafValues>
            4.7950819134712219e-01 -2.6521739363670349e-01</leafValues></_>
        <_>
          <internalNodes>
            0 -1 530 -7.5939688831567764e-03</internalNodes>
          <leafValues>
            3.4956789016723633e-01 -1.4808259904384613e-01</leafValues></_>
        <_>
          <internalNodes>
            0 -1 324 -6.3212499022483826e-02</internalNodes>
          <leafValues>
            4.2890703678131104e-01 -1.1564926058053970e-01</leafValues></_>
        <_>
          <internalNodes>
            0 -1 291 -2.4517649784684181e-02</internalNodes>
          <leafValues>
            2.4929076433181763e-01 -2.1642696857452393e-01</leafValues></_>
        <_>
          <internalNodes>
            0 -1 534 1.8445078283548355e-02</internalNodes>
          <leafValues>
            -1.5081338584423065e-01 2.5490361452102661e-01</leafValues></_>
        <_>
          <internalNodes>
            0 -1 174 5.6170638650655746e-02</internalNodes>
          <leafValues>
            8.6237959563732147e-02 -4.7643116116523743e-01</leafValues></_>
        <_>
          <internalNodes>
            0 -1 180 -6.5028630197048187e-02</internalNodes>
          <leafValues>
            -5.9422326087951660e-01 8.2510240375995636e-02</leafValues></_>
        <_>
          <internalNodes>
            0 -1 391 -2.9642835259437561e-02</internalNodes>
          <leafValues>
            -7.0448380708694458e-01 4.0864333510398865e-02</leafValues></_>
        <_>
          <internalNodes>
            0 -1 438 4.8273075371980667e-03</internalNodes>
          <leafValues>
            5.9814464300870895e-02 -5.1838850975036621e-01</leafValues></_>
        <_>
          <internalNodes>
            0 -1 428 -3.3611744642257690e-02</internalNodes>
          <leafValues>
            3.7221464514732361e-01 -8.4334723651409149e-02</leafValues></_>
        <_>
          <internalNodes>
            0 -1 611 -1.3298306614160538e-02</internalNodes>
          <leafValues>
            6.0542857646942139e-01 -5.8628689497709274e-02</leafValues></_>
        <_>
          <internalNodes>
            0 -1 158 -2.8298180550336838e-03</internalNodes>
          <leafValues>
            4.5860189199447632e-01 -6.7942798137664795e-02</leafValues></_>
        <_>
          <internalNodes>
            0 -1 612 1.2632300786208361e-04</internalNodes>
          <leafValues>
            1.1426734924316406e-01 -2.8920120000839233e-01</leafValues></_>
        <_>
          <internalNodes>
            0 -1 204 -8.5816183127462864e-04</internalNodes>
          <leafValues>
            3.9046165347099304e-01 -7.6424650847911835e-02</leafValues></_>
        <_>
          <internalNodes>
            0 -1 365 3.8715512491762638e-03</internalNodes>
          <leafValues>
            8.0340757966041565e-02 -3.9168050885200500e-01</leafValues></_>
        <_>
          <internalNodes>
            0 -1 58 4.9332447350025177e-02</internalNodes>
          <leafValues>
            6.5915055572986603e-02 -5.2396988868713379e-01</leafValues></_>
        <_>
          <internalNodes>
            0 -1 171 3.3821150660514832e-01</internalNodes>
          <leafValues>
            3.6589130759239197e-02 -8.2289123535156250e-01</leafValues></_>
        <_>
          <internalNodes>
            0 -1 147 1.2930491566658020e-01</internalNodes>
          <leafValues>
            -1.4399483799934387e-01 2.5410908460617065e-01</leafValues></_>
        <_>
          <internalNodes>
            0 -1 337 7.1423426270484924e-03</internalNodes>
          <leafValues>
            2.8219646215438843e-01 -1.6944497823715210e-01</leafValues></_>
        <_>
          <internalNodes>
            0 -1 453 -1.7689647153019905e-02</internalNodes>
          <leafValues>
            4.5379284024238586e-01 -6.1021812260150909e-02</leafValues></_>
        <_>
          <internalNodes>
            0 -1 421 5.0195325165987015e-02</internalNodes>
          <leafValues>
            -2.0884644985198975e-01 1.8145915865898132e-01</leafValues></_>
        <_>
          <internalNodes>
            0 -1 521 -9.4130751676857471e-04</internalNodes>
          <leafValues>
            2.5690189003944397e-01 -1.4728222787380219e-01</leafValues></_>
        <_>
          <internalNodes>
            0 -1 471 -1.5472460538148880e-02</internalNodes>
          <leafValues>
            2.4644105136394501e-01 -1.7101769149303436e-01</leafValues></_>
        <_>
          <internalNodes>
            0 -1 194 -4.8855338245630264e-02</internalNodes>
          <leafValues>
            -8.6701190471649170e-01 4.5099355280399323e-02</leafValues></_>
        <_>
          <internalNodes>
            0 -1 34 1.4870324172079563e-02</internalNodes>
          <leafValues>
            -1.3304638862609863e-01 2.7717038989067078e-01</leafValues></_>
        <_>
          <internalNodes>
            0 -1 436 -1.8919875146821141e-03</internalNodes>
          <leafValues>
            -7.1563464403152466e-01 4.0933437645435333e-02</leafValues></_>
        <_>
          <internalNodes>
            0 -1 387 -1.8348535522818565e-03</internalNodes>
          <leafValues>
            4.0301328897476196e-01 -8.9034534990787506e-02</leafValues></_>
        <_>
          <internalNodes>
            0 -1 614 -2.7508437633514404e-02</internalNodes>
          <leafValues>
            -6.2761503458023071e-01 5.8382585644721985e-02</leafValues></_>
        <_>
          <internalNodes>
            0 -1 443 4.1939660906791687e-02</internalNodes>
          <leafValues>
            2.6643624529242516e-02 -9.3852597475051880e-01</leafValues></_>
        <_>
          <internalNodes>
            0 -1 486 1.9102043006569147e-03</internalNodes>
          <leafValues>
            -6.6651098430156708e-02 6.0375684499740601e-01</leafValues></_>
        <_>
          <internalNodes>
            0 -1 305 3.2250070944428444e-04</internalNodes>
          <leafValues>
            1.1751741170883179e-01 -3.2344940304756165e-01</leafValues></_>
        <_>
          <internalNodes>
            0 -1 148 3.4360270947217941e-02</internalNodes>
          <leafValues>
            -9.0346083045005798e-02 3.6490443348884583e-01</leafValues></_>
        <_>
          <internalNodes>
            0 -1 564 -2.4506528861820698e-03</internalNodes>
          <leafValues>
            4.9793407320976257e-01 -7.7017836272716522e-02</leafValues></_>
        <_>
          <internalNodes>
            0 -1 85 -1.6032263636589050e-02</internalNodes>
          <leafValues>
            3.3686628937721252e-01 -1.0536435991525650e-01</leafValues></_>
        <_>
          <internalNodes>
            0 -1 315 2.0454381592571735e-03</internalNodes>
          <leafValues>
            1.0207644850015640e-01 -3.5018634796142578e-01</leafValues></_></weakClassifiers></_>
    <!-- stage 6 -->
    <_>
      <maxWeakCount>35</maxWeakCount>
      <stageThreshold>-9.8911833763122559e-01</stageThreshold>
      <weakClassifiers>
        <_>
          <internalNodes>
            0 -1 112 6.4056670665740967e-01</internalNodes>
          <leafValues>
            -2.3043790459632874e-01 3.9789474010467529e-01</leafValues></_>
        <_>
          <internalNodes>
            0 -1 318 4.5597315765917301e-03</internalNodes>
          <leafValues>
            -2.0901617407798767e-01 2.9480087757110596e-01</leafValues></_>
        <_>
          <internalNodes>
            0 -1 10 8.6063621565699577e-03</internalNodes>
          <leafValues>
            -2.6506957411766052e-01 1.6190353035926819e-01</leafValues></_>
        <_>
          <internalNodes>
            0 -1 67 4.2365767061710358e-02</internalNodes>
          <leafValues>
            2.9904719442129135e-02 -6.1145752668380737e-01</leafValues></_>
        <_>
          <internalNodes>
            0 -1 19 2.6616656780242920e-01</internalNodes>
          <leafValues>
            5.6961145251989365e-02 -7.1286737918853760e-01</leafValues></_>
        <_>
          <internalNodes>
            0 -1 177 1.8150886893272400e-01</internalNodes>
          <leafValues>
            -8.5481263697147369e-02 4.1235154867172241e-01</leafValues></_>
        <_>
          <internalNodes>
            0 -1 262 -1.0907871648669243e-02</internalNodes>
          <leafValues>
            2.8572440147399902e-01 -1.4695516228675842e-01</leafValues></_>
        <_>
          <internalNodes>
            0 -1 181 3.3741414546966553e-02</internalNodes>
          <leafValues>
            -7.5164265930652618e-02 4.5332431793212891e-01</leafValues></_>
        <_>
          <internalNodes>
            0 -1 550 3.1863514333963394e-02</internalNodes>
          <leafValues>
            -1.1345232278108597e-01 3.5010242462158203e-01</leafValues></_>
        <_>
          <internalNodes>
            0 -1 588 -1.6344885807484388e-03</internalNodes>
          <leafValues>
            4.2799723148345947e-01 -1.0000240802764893e-01</leafValues></_>
        <_>
          <internalNodes>
            0 -1 202 -5.9787090867757797e-04</internalNodes>
          <leafValues>
            3.8576447963714600e-01 -6.3266776502132416e-02</leafValues></_>
        <_>
          <internalNodes>
            0 -1 202 7.5847003608942032e-04</internalNodes>
          <leafValues>
            -8.3091482520103455e-02 4.5380467176437378e-01</leafValues></_>
        <_>
          <internalNodes>
            0 -1 433 -5.1334118470549583e-03</internalNodes>
          <leafValues>
            -6.7846775054931641e-01 5.3554616868495941e-02</leafValues></_>
        <_>
          <internalNodes>
            0 -1 580 2.3547045420855284e-03</internalNodes>
          <leafValues>
            -1.1577268689870834e-01 3.0952075123786926e-01</leafValues></_>
        <_>
          <internalNodes>
            0 -1 142 -5.9189200401306152e-02</internalNodes>
          <leafValues>
            2.5221061706542969e-01 -1.4108508825302124e-01</leafValues></_>
        <_>
          <internalNodes>
            0 -1 14 -2.3391665308736265e-04</internalNodes>
          <leafValues>
            -3.1943717598915100e-01 1.2129890173673630e-01</leafValues></_>
        <_>
          <internalNodes>
            0 -1 309 6.5964547684416175e-04</internalNodes>
          <leafValues>
            1.0915601253509521e-01 -3.1191456317901611e-01</leafValues></_>
        <_>
          <internalNodes>
            0 -1 233 -6.3686561770737171e-04</internalNodes>
          <leafValues>
            4.4987908005714417e-01 -7.4897892773151398e-02</leafValues></_>
        <_>
          <internalNodes>
            0 -1 559 -2.0347464829683304e-02</internalNodes>
          <leafValues>
            -6.9692867994308472e-01 5.4180681705474854e-02</leafValues></_>
        <_>
          <internalNodes>
            0 -1 131 -1.8103722482919693e-02</internalNodes>
          <leafValues>
            3.5566803812980652e-01 -1.0003507137298584e-01</leafValues></_>
        <_>
          <internalNodes>
            0 -1 228 2.5119195925071836e-04</internalNodes>
          <leafValues>
            2.7070769667625427e-01 -1.2187730520963669e-01</leafValues></_>
        <_>
          <internalNodes>
            0 -1 138 1.6005870699882507e-01</internalNodes>
          <leafValues>
            -1.9137124717235565e-01 1.9664244353771210e-01</leafValues></_>
        <_>
          <internalNodes>
            0 -1 29 1.4966914430260658e-02</internalNodes>
          <leafValues>
            4.8969727009534836e-02 -6.6019904613494873e-01</leafValues></_>
        <_>
          <internalNodes>
            0 -1 137 -8.4686711430549622e-02</internalNodes>
          <leafValues>
            -4.8658028244972229e-01 6.7342065274715424e-02</leafValues></_>
        <_>
          <internalNodes>
            0 -1 613 -2.0309342071413994e-02</internalNodes>
          <leafValues>
            -7.8692501783370972e-01 4.3283626437187195e-02</leafValues></_>
        <_>
          <internalNodes>
            0 -1 623 -5.2845702157355845e-05</internalNodes>
          <leafValues>
            -2.4095997214317322e-01 1.2882408499717712e-01</leafValues></_>
        <_>
          <internalNodes>
            0 -1 161 -1.0621128603816032e-02</internalNodes>
          <leafValues>
            -5.3310465812683105e-01 5.8484386652708054e-02</leafValues></_>
        <_>
          <internalNodes>
            0 -1 505 2.2563957609236240e-03</internalNodes>
          <leafValues>
            -1.2062180042266846e-01 2.7668437361717224e-01</leafValues></_>
        <_>
          <internalNodes>
            0 -1 476 -2.4102237075567245e-03</internalNodes>
          <leafValues>
            2.9590836167335510e-01 -1.1183141916990280e-01</leafValues></_>
        <_>
          <internalNodes>
            0 -1 288 -1.5228644944727421e-02</internalNodes>
          <leafValues>
            5.1044982671737671e-01 -6.1109341681003571e-02</leafValues></_>
        <_>
          <internalNodes>
            0 -1 618 -1.1173924431204796e-03</internalNodes>
          <leafValues>
            -5.1132738590240479e-01 7.0451714098453522e-02</leafValues></_>
        <_>
          <internalNodes>
            0 -1 136 -1.1950862593948841e-02</internalNodes>
          <leafValues>
            1.7939594388008118e-01 -1.6623297333717346e-01</leafValues></_>
        <_>
          <internalNodes>
            0 -1 596 4.1973185725510120e-03</internalNodes>
          <leafValues>
            -7.6271295547485352e-02 3.8123199343681335e-01</leafValues></_>
        <_>
          <internalNodes>
            0 -1 609 -2.8211870812810957e-04</internalNodes>
          <leafValues>
            -2.8998112678527832e-01 1.0462243854999542e-01</leafValues></_>
        <_>
          <internalNodes>
            0 -1 201 7.7871661633253098e-03</internalNodes>
          <leafValues>
            4.4875383377075195e-02 -7.3954331874847412e-01</leafValues></_></weakClassifiers></_>
    <!-- stage 7 -->
    <_>
      <maxWeakCount>29</maxWeakCount>
      <stageThreshold>-1.0690417289733887e+00</stageThreshold>
      <weakClassifiers>
        <_>
          <internalNodes>
            0 -1 111 4.8030847311019897e-01</internalNodes>
          <leafValues>
            -2.9675424098968506e-01 4.3902438879013062e-01</leafValues></_>
        <_>
          <internalNodes>
            0 -1 374 7.9332903027534485e-02</internalNodes>
          <leafValues>
            1.6065749526023865e-01 -5.4239058494567871e-01</leafValues></_>
        <_>
          <internalNodes>
            0 -1 496 1.5580650418996811e-02</internalNodes>
          <leafValues>
            -1.7197893559932709e-01 3.4509477019309998e-01</leafValues></_>
        <_>
          <internalNodes>
            0 -1 12 -9.1068349778652191e-02</internalNodes>
          <leafValues>
            -6.9852072000503540e-01 7.2716623544692993e-02</leafValues></_>
        <_>
          <internalNodes>
            0 -1 481 -3.1025051139295101e-03</internalNodes>
          <leafValues>
            3.5508772730827332e-01 -1.1407092958688736e-01</leafValues></_>
        <_>
          <internalNodes>
            0 -1 585 6.3067683950066566e-03</internalNodes>
          <leafValues>
            -9.1993324458599091e-02 4.3921160697937012e-01</leafValues></_>
        <_>
          <internalNodes>
            0 -1 50 3.8342915475368500e-02</internalNodes>
          <leafValues>
            -1.0789848864078522e-01 4.3651616573333740e-01</leafValues></_>
        <_>
          <internalNodes>
            0 -1 342 4.8640863969922066e-03</internalNodes>
          <leafValues>
            -1.4771366119384766e-01 2.7410575747489929e-01</leafValues></_>
        <_>
          <internalNodes>
            0 -1 538 -6.4451375510543585e-04</internalNodes>
          <leafValues>
            -2.5329887866973877e-01 1.7090630531311035e-01</leafValues></_>
        <_>
          <internalNodes>
            0 -1 254 -3.1105373054742813e-02</internalNodes>
          <leafValues>
            2.7183583378791809e-01 -1.5392453968524933e-01</leafValues></_>
        <_>
          <internalNodes>
            0 -1 364 7.1040466427803040e-02</internalNodes>
          <leafValues>
            5.1743667572736740e-02 -7.8604501485824585e-01</leafValues></_>
        <_>
          <internalNodes>
            0 -1 287 5.4289467632770538e-02</internalNodes>
          <leafValues>
            8.1336848437786102e-02 -4.2334958910942078e-01</leafValues></_>
        <_>
          <internalNodes>
            0 -1 591 4.5197556028142571e-04</internalNodes>
          <leafValues>
            -1.0677975416183472e-01 3.5074996948242188e-01</leafValues></_>
        <_>
          <internalNodes>
            0 -1 403 -1.9916268065571785e-03</internalNodes>
          <leafValues>
            3.3830255270004272e-01 -1.1393912136554718e-01</leafValues></_>
        <_>
          <internalNodes>
            0 -1 101 -7.5973384082317352e-03</internalNodes>
          <leafValues>
            6.8675398826599121e-01 -5.7688187807798386e-02</leafValues></_>
        <_>
          <internalNodes>
            0 -1 313 4.2273518629372120e-03</internalNodes>
          <leafValues>
            1.7785073816776276e-01 -2.2295615077018738e-01</leafValues></_>
        <_>
          <internalNodes>
            0 -1 562 -8.2949944771826267e-04</internalNodes>
          <leafValues>
            4.9056482315063477e-01 -8.4358312189579010e-02</leafValues></_>
        <_>
          <internalNodes>
            0 -1 54 3.4937903285026550e-01</internalNodes>
          <leafValues>
            -4.4755268841981888e-02 6.9489413499832153e-01</leafValues></_>
        <_>
          <internalNodes>
            0 -1 472 -5.3003793582320213e-03</internalNodes>
          <leafValues>
            4.0483865141868591e-01 -7.8521832823753357e-02</leafValues></_>
        <_>
          <internalNodes>
            0 -1 82 5.5550340563058853e-02</internalNodes>
          <leafValues>
            6.5833270549774170e-02 -6.6094225645065308e-01</leafValues></_>
        <_>
          <internalNodes>
            0 -1 412 2.5056204758584499e-03</internalNodes>
          <leafValues>
            -1.1488217860460281e-01 3.6098834872245789e-01</leafValues></_>
        <_>
          <internalNodes>
            0 -1 77 -2.0151285571046174e-04</internalNodes>
          <leafValues>
            -2.4945272505283356e-01 1.3937246799468994e-01</leafValues></_>
        <_>
          <internalNodes>
            0 -1 495 -8.0326391616836190e-04</internalNodes>
          <leafValues>
            2.5452005863189697e-01 -1.4042773842811584e-01</leafValues></_>
        <_>
          <internalNodes>
            0 -1 288 -2.4172535166144371e-02</internalNodes>
          <leafValues>
            6.8777227401733398e-01 -5.3288139402866364e-02</leafValues></_>
        <_>
          <internalNodes>
            0 -1 299 -1.1696964502334595e-02</internalNodes>
          <leafValues>
            -6.2544584274291992e-01 7.0587925612926483e-02</leafValues></_>
        <_>
          <internalNodes>
            0 -1 269 5.9535278705880046e-04</internalNodes>
          <leafValues>
            1.6838797926902771e-01 -2.1858397126197815e-01</leafValues></_>
        <_>
          <internalNodes>
            0 -1 382 1.7867734655737877e-02</internalNodes>
          <leafValues>
            -6.6168300807476044e-02 5.5838394165039063e-01</leafValues></_>
        <_>
          <internalNodes>
            0 -1 459 7.3538953438401222e-04</internalNodes>
          <leafValues>
            1.4351975917816162e-01 -2.5609403848648071e-01</leafValues></_>
        <_>
          <internalNodes>
            0 -1 212 4.2745186947286129e-03</internalNodes>
          <leafValues>
            -6.2407549470663071e-02 5.6257516145706177e-01</leafValues></_></weakClassifiers></_>
    <!-- stage 8 -->
    <_>
      <maxWeakCount>37</maxWeakCount>
      <stageThreshold>-1.0512888431549072e+00</stageThreshold>
      <weakClassifiers>
        <_>
          <internalNodes>
            0 -1 164 -5.1390655338764191e-02</internalNodes>
          <leafValues>
            3.0482760071754456e-01 -3.0883640050888062e-01</leafValues></_>
        <_>
          <internalNodes>
            0 -1 154 -4.0334902587346733e-04</internalNodes>
          <leafValues>
            2.3369206488132477e-01 -2.3378233611583710e-01</leafValues></_>
        <_>
          <internalNodes>
            0 -1 442 2.0063731819391251e-02</internalNodes>
          <leafValues>
            -2.7261871099472046e-01 1.9239650666713715e-01</leafValues></_>
        <_>
          <internalNodes>
            0 -1 221 -1.5179320238530636e-02</internalNodes>
          <leafValues>
            3.7100327014923096e-01 -9.8702229559421539e-02</leafValues></_>
        <_>
          <internalNodes>
            0 -1 206 9.0176798403263092e-03</internalNodes>
          <leafValues>
            -2.9411646723747253e-01 1.7392526566982269e-01</leafValues></_>
        <_>
          <internalNodes>
            0 -1 557 4.8748487606644630e-03</internalNodes>
          <leafValues>
            -1.2421356141567230e-01 3.5402432084083557e-01</leafValues></_>
        <_>
          <internalNodes>
            0 -1 557 -5.9537664055824280e-03</internalNodes>
          <leafValues>
            4.0085321664810181e-01 -8.5513569414615631e-02</leafValues></_>
        <_>
          <internalNodes>
            0 -1 331 6.4352005720138550e-02</internalNodes>
          <leafValues>
            5.1537696272134781e-02 -5.3821182250976563e-01</leafValues></_>
        <_>
          <internalNodes>
            0 -1 224 -1.4465785585343838e-02</internalNodes>
          <leafValues>
            -3.8042187690734863e-01 1.0190950334072113e-01</leafValues></_>
        <_>
          <internalNodes>
            0 -1 485 -9.7065250156447291e-04</internalNodes>
          <leafValues>
            3.6370581388473511e-01 -1.0610260069370270e-01</leafValues></_>
        <_>
          <internalNodes>
            0 -1 407 9.9187786690890789e-04</internalNodes>
          <leafValues>
            1.4839430153369904e-01 -2.4959048628807068e-01</leafValues></_>
        <_>
          <internalNodes>
            0 -1 98 -5.6295348331332207e-03</internalNodes>
          <leafValues>
            2.9049265384674072e-01 -1.3992738723754883e-01</leafValues></_>
        <_>
          <internalNodes>
            0 -1 448 -4.1028704494237900e-02</internalNodes>
          <leafValues>
            3.8755989074707031e-01 -1.0039534419775009e-01</leafValues></_>
        <_>
          <internalNodes>
            0 -1 565 -6.3927849987521768e-04</internalNodes>
          <leafValues>
            4.2021828889846802e-01 -9.2906363308429718e-02</leafValues></_>
        <_>
          <internalNodes>
            0 -1 499 -1.1033550836145878e-03</internalNodes>
          <leafValues>
            3.0214822292327881e-01 -1.2647159397602081e-01</leafValues></_>
        <_>
          <internalNodes>
            0 -1 75 -1.4979381114244461e-02</internalNodes>
          <leafValues>
            -4.6483260393142700e-01 7.5370274484157562e-02</leafValues></_>
        <_>
          <internalNodes>
            0 -1 517 1.6003816854208708e-03</internalNodes>
          <leafValues>
            -9.1418012976646423e-02 3.6249235272407532e-01</leafValues></_>
        <_>
          <internalNodes>
            0 -1 135 5.5852909572422504e-03</internalNodes>
          <leafValues>
            -4.1146721690893173e-02 5.8767831325531006e-01</leafValues></_>
        <_>
          <internalNodes>
            0 -1 38 4.0525227785110474e-02</internalNodes>
          <leafValues>
            5.2841138094663620e-02 -8.2054120302200317e-01</leafValues></_>
        <_>
          <internalNodes>
            0 -1 189 3.5061035305261612e-02</internalNodes>
          <leafValues>
            3.7186201661825180e-02 -5.5626112222671509e-01</leafValues></_>
        <_>
          <internalNodes>
            0 -1 385 -1.6498861368745565e-03</internalNodes>
          <leafValues>
            2.5817784667015076e-01 -1.4340196549892426e-01</leafValues></_>
        <_>
          <internalNodes>
            0 -1 500 -2.0016576163470745e-03</internalNodes>
          <leafValues>
            4.1232308745384216e-01 -8.0266624689102173e-02</leafValues></_>
        <_>
          <internalNodes>
            0 -1 570 1.3749180361628532e-02</internalNodes>
          <leafValues>
            4.9239873886108398e-02 -6.6446918249130249e-01</leafValues></_>
        <_>
          <internalNodes>
            0 -1 219 -4.8169707879424095e-03</internalNodes>
          <leafValues>
            3.2399126887321472e-01 -1.0661560297012329e-01</leafValues></_>
        <_>
          <internalNodes>
            0 -1 200 -1.0268155019730330e-03</internalNodes>
          <leafValues>
            2.7800932526588440e-01 -1.0620933026075363e-01</leafValues></_>
        <_>
          <internalNodes>
            0 -1 340 5.7518004905432463e-04</internalNodes>
          <leafValues>
            9.1881692409515381e-02 -3.3784282207489014e-01</leafValues></_>
        <_>
          <internalNodes>
            0 -1 410 -2.3224415257573128e-02</internalNodes>
          <leafValues>
            -7.3460519313812256e-01 4.4615212827920914e-02</leafValues></_>
        <_>
          <internalNodes>
            0 -1 383 2.2062826901674271e-02</internalNodes>
          <leafValues>
            -5.9262845665216446e-02 6.6452395915985107e-01</leafValues></_>
        <_>
          <internalNodes>
            0 -1 629 -1.0364788613514975e-04</internalNodes>
          <leafValues>
            -2.2441780567169189e-01 1.5594644844532013e-01</leafValues></_>
        <_>
          <internalNodes>
            0 -1 531 -3.0082461889833212e-03</internalNodes>
          <leafValues>
            7.9133355617523193e-01 -4.6326410025358200e-02</leafValues></_>
        <_>
          <internalNodes>
            0 -1 377 -8.2919970154762268e-03</internalNodes>
          <leafValues>
            2.0878449082374573e-01 -1.4581377804279327e-01</leafValues></_>
        <_>
          <internalNodes>
            0 -1 470 2.1134994924068451e-02</internalNodes>
          <leafValues>
            -1.1071811616420746e-01 3.5220953822135925e-01</leafValues></_>
        <_>
          <internalNodes>
            0 -1 327 -5.2243140526115894e-03</internalNodes>
          <leafValues>
            3.0517145991325378e-01 -1.1212215572595596e-01</leafValues></_>
        <_>
          <internalNodes>
            0 -1 378 3.9362862706184387e-02</internalNodes>
          <leafValues>
            9.0886175632476807e-02 -4.5451965928077698e-01</leafValues></_>
        <_>
          <internalNodes>
            0 -1 507 8.4535893984138966e-04</internalNodes>
          <leafValues>
            8.5954986512660980e-02 -3.7600228190422058e-01</leafValues></_>
        <_>
          <internalNodes>
            0 -1 437 -2.3455475457012653e-03</internalNodes>
          <leafValues>
            -3.0050754547119141e-01 1.0821115970611572e-01</leafValues></_>
        <_>
          <internalNodes>
            0 -1 460 1.0013049468398094e-03</internalNodes>
          <leafValues>
            1.2396752089262009e-01 -2.7149713039398193e-01</leafValues></_></weakClassifiers></_>
    <!-- stage 9 -->
    <_>
      <maxWeakCount>33</maxWeakCount>
      <stageThreshold>-9.7927868366241455e-01</stageThreshold>
      <weakClassifiers>
        <_>
          <internalNodes>
            0 -1 120 4.7523069381713867e-01</internalNodes>
          <leafValues>
            -2.6803341507911682e-01 4.0108892321586609e-01</leafValues></_>
        <_>
          <internalNodes>
            0 -1 232 4.7392255510203540e-04</internalNodes>
          <leafValues>
            2.0162424445152283e-01 -3.1976076960563660e-01</leafValues></_>
        <_>
          <internalNodes>
            0 -1 329 2.9408326372504234e-02</internalNodes>
          <leafValues>
            -1.3003845512866974e-01 3.4383043646812439e-01</leafValues></_>
        <_>
          <internalNodes>
            0 -1 569 -2.3652147501707077e-02</internalNodes>
          <leafValues>
            2.1868234872817993e-01 -2.1308314800262451e-01</leafValues></_>
        <_>
          <internalNodes>
            0 -1 183 -5.0591386854648590e-02</internalNodes>
          <leafValues>
            -4.1537636518478394e-01 1.0403995215892792e-01</leafValues></_>
        <_>
          <internalNodes>
            0 -1 347 -2.8937658667564392e-01</internalNodes>
          <leafValues>
            -7.9368352890014648e-01 5.7997524738311768e-02</leafValues></_>
        <_>
          <internalNodes>
            0 -1 139 -1.2650551274418831e-02</internalNodes>
          <leafValues>
            3.5053414106369019e-01 -1.2063968926668167e-01</leafValues></_>
        <_>
          <internalNodes>
            0 -1 350 -6.0905069112777710e-03</internalNodes>
          <leafValues>
            4.5905476808547974e-01 -9.5157377421855927e-02</leafValues></_>
        <_>
          <internalNodes>
            0 -1 100 -1.3985218247398734e-03</internalNodes>
          <leafValues>
            3.9049378037452698e-01 -1.1036860942840576e-01</leafValues></_>
        <_>
          <internalNodes>
            0 -1 73 -1.8055669963359833e-02</internalNodes>
          <leafValues>
            -8.7273716926574707e-01 5.5493663996458054e-02</leafValues></_>
        <_>
          <internalNodes>
            0 -1 187 3.4572366625070572e-02</internalNodes>
          <leafValues>
            6.1264146119356155e-02 -4.5973598957061768e-01</leafValues></_>
        <_>
          <internalNodes>
            0 -1 400 -1.5145799145102501e-02</internalNodes>
          <leafValues>
            2.4228206276893616e-01 -1.4278416335582733e-01</leafValues></_>
        <_>
          <internalNodes>
            0 -1 209 5.1231749355792999e-02</internalNodes>
          <leafValues>
            -2.6642805337905884e-01 1.6049392521381378e-01</leafValues></_>
        <_>
          <internalNodes>
            0 -1 513 -1.2193948496133089e-03</internalNodes>
          <leafValues>
            3.3096730709075928e-01 -1.1551363021135330e-01</leafValues></_>
        <_>
          <internalNodes>
            0 -1 4 1.5365116298198700e-02</internalNodes>
          <leafValues>
            -1.1439482122659683e-01 2.9537096619606018e-01</leafValues></_>
        <_>
          <internalNodes>
            0 -1 207 1.1874537914991379e-02</internalNodes>
          <leafValues>
            -1.5015085041522980e-01 2.3329776525497437e-01</leafValues></_>
        <_>
          <internalNodes>
            0 -1 216 3.3188521862030029e-02</internalNodes>
          <leafValues>
            -9.5734879374504089e-02 3.8547423481941223e-01</leafValues></_>
        <_>
          <internalNodes>
            0 -1 72 -3.1693346798419952e-02</internalNodes>
          <leafValues>
            6.5618926286697388e-01 -5.9806313365697861e-02</leafValues></_>
        <_>
          <internalNodes>
            0 -1 352 3.5105962306261063e-03</internalNodes>
          <leafValues>
            -1.7030018568038940e-01 2.1344247460365295e-01</leafValues></_>
        <_>
          <internalNodes>
            0 -1 245 -1.1232474446296692e-01</internalNodes>
          <leafValues>
            -8.9466089010238647e-01 4.5223016291856766e-02</leafValues></_>
        <_>
          <internalNodes>
            0 -1 244 -1.8868858460336924e-03</internalNodes>
          <leafValues>
            -6.5089857578277588e-01 4.0358521044254303e-02</leafValues></_>
        <_>
          <internalNodes>
            0 -1 355 -3.0386787839233875e-03</internalNodes>
          <leafValues>
            2.9714563488960266e-01 -1.2038075178861618e-01</leafValues></_>
        <_>
          <internalNodes>
            0 -1 563 1.3645796105265617e-02</internalNodes>
          <leafValues>
            -9.1891951858997345e-02 3.6118060350418091e-01</leafValues></_>
        <_>
          <internalNodes>
            0 -1 608 4.2158542782999575e-04</internalNodes>
          <leafValues>
            1.2204990535974503e-01 -2.8328320384025574e-01</leafValues></_>
        <_>
          <internalNodes>
            0 -1 87 -3.9098538458347321e-02</internalNodes>
          <leafValues>
            5.8163893222808838e-01 -5.6920852512121201e-02</leafValues></_>
        <_>
          <internalNodes>
            0 -1 541 1.7940994584932923e-03</internalNodes>
          <leafValues>
            -7.0527926087379456e-02 4.4036889076232910e-01</leafValues></_>
        <_>
          <internalNodes>
            0 -1 266 1.2898392742499709e-03</internalNodes>
          <leafValues>
            8.4176376461982727e-02 -3.6856019496917725e-01</leafValues></_>
        <_>
          <internalNodes>
            0 -1 397 -5.3640194237232208e-03</internalNodes>
          <leafValues>
            2.2419032454490662e-01 -1.4716145396232605e-01</leafValues></_>
        <_>
          <internalNodes>
            0 -1 153 3.2676108181476593e-02</internalNodes>
          <leafValues>
            6.0313120484352112e-02 -5.7233923673629761e-01</leafValues></_>
        <_>
          <internalNodes>
            0 -1 243 2.6018515229225159e-02</internalNodes>
          <leafValues>
            -1.9296661019325256e-01 1.9964602589607239e-01</leafValues></_>
        <_>
          <internalNodes>
            0 -1 574 2.1568959346041083e-04</internalNodes>
          <leafValues>
            1.8687589466571808e-01 -1.9160602986812592e-01</leafValues></_>
        <_>
          <internalNodes>
            0 -1 166 -4.9985980149358511e-04</internalNodes>
          <leafValues>
            3.1786048412322998e-01 -1.0698508471250534e-01</leafValues></_>
        <_>
          <internalNodes>
            0 -1 435 9.3685876345261931e-04</internalNodes>
          <leafValues>
            8.5842281579971313e-02 -4.0956699848175049e-01</leafValues></_></weakClassifiers></_>
    <!-- stage 10 -->
    <_>
      <maxWeakCount>37</maxWeakCount>
      <stageThreshold>-1.1181293725967407e+00</stageThreshold>
      <weakClassifiers>
        <_>
          <internalNodes>
            0 -1 146 2.0243909955024719e-01</internalNodes>
          <leafValues>
            -4.1636142134666443e-01 1.9923736155033112e-01</leafValues></_>
        <_>
          <internalNodes>
            0 -1 329 2.1047439426183701e-02</internalNodes>
          <leafValues>
            -1.7071826756000519e-01 3.0595800280570984e-01</leafValues></_>
        <_>
          <internalNodes>
            0 -1 523 -7.2827905416488647e-02</internalNodes>
          <leafValues>
            2.9772797226905823e-01 -1.7257894575595856e-01</leafValues></_>
        <_>
          <internalNodes>
            0 -1 418 -4.8517202958464622e-03</internalNodes>
          <leafValues>
            2.4383924901485443e-01 -2.0196443796157837e-01</leafValues></_>
        <_>
          <internalNodes>
            0 -1 105 -1.5146521036513150e-04</internalNodes>
          <leafValues>
            -2.3072047531604767e-01 2.4947820603847504e-01</leafValues></_>
        <_>
          <internalNodes>
            0 -1 467 6.9970577023923397e-03</internalNodes>
          <leafValues>
            -2.4618445336818695e-01 2.1442443132400513e-01</leafValues></_>
        <_>
          <internalNodes>
            0 -1 450 3.4753927029669285e-03</internalNodes>
          <leafValues>
            -8.3701699972152710e-02 4.6149486303329468e-01</leafValues></_>
        <_>
          <internalNodes>
            0 -1 379 -7.8243669122457504e-03</internalNodes>
          <leafValues>
            4.9948811531066895e-01 -6.3534408807754517e-02</leafValues></_>
        <_>
          <internalNodes>
            0 -1 380 -1.2422263622283936e-02</internalNodes>
          <leafValues>
            3.1093898415565491e-01 -1.3842333853244781e-01</leafValues></_>
        <_>
          <internalNodes>
            0 -1 388 6.3053928315639496e-03</internalNodes>
          <leafValues>
            1.1757077276706696e-01 -3.7852698564529419e-01</leafValues></_>
        <_>
          <internalNodes>
            0 -1 104 -6.1026383191347122e-03</internalNodes>
          <leafValues>
            5.2436894178390503e-01 -8.8275700807571411e-02</leafValues></_>
        <_>
          <internalNodes>
            0 -1 587 -2.0133636426180601e-03</internalNodes>
          <leafValues>
            4.1167446970939636e-01 -1.2515977025032043e-01</leafValues></_>
        <_>
          <internalNodes>
            0 -1 106 2.5634787743911147e-04</internalNodes>
          <leafValues>
            1.7416347563266754e-01 -2.7210351824760437e-01</leafValues></_>
        <_>
          <internalNodes>
            0 -1 53 -2.7571432292461395e-02</internalNodes>
          <leafValues>
            -5.4258131980895996e-01 7.7290818095207214e-02</leafValues></_>
        <_>
          <internalNodes>
            0 -1 150 -2.6140505447983742e-02</internalNodes>
          <leafValues>
            -5.4917860031127930e-01 5.9825215488672256e-02</leafValues></_>
        <_>
          <internalNodes>
            0 -1 242 2.6431590318679810e-02</internalNodes>
          <leafValues>
            -1.2907679378986359e-01 2.9651033878326416e-01</leafValues></_>
        <_>
          <internalNodes>
            0 -1 286 -1.1851553805172443e-02</internalNodes>
          <leafValues>
            3.8475611805915833e-01 -1.0562604665756226e-01</leafValues></_>
        <_>
          <internalNodes>
            0 -1 451 -3.7651667371392250e-03</internalNodes>
          <leafValues>
            4.0129163861274719e-01 -6.7882969975471497e-02</leafValues></_>
        <_>
          <internalNodes>
            0 -1 473 2.0957328379154205e-03</internalNodes>
          <leafValues>
            -9.4339959323406219e-02 3.9878398180007935e-01</leafValues></_>
        <_>
          <internalNodes>
            0 -1 52 2.4554811418056488e-01</internalNodes>
          <leafValues>
            -1.4134185016155243e-01 2.9424658417701721e-01</leafValues></_>
        <_>
          <internalNodes>
            0 -1 561 2.5806771591305733e-03</internalNodes>
          <leafValues>
            -8.9273519814014435e-02 4.5007628202438354e-01</leafValues></_>
        <_>
          <internalNodes>
            0 -1 107 -1.7179518938064575e-02</internalNodes>
          <leafValues>
            -6.3855183124542236e-01 6.1433233320713043e-02</leafValues></_>
        <_>
          <internalNodes>
            0 -1 231 5.3699593991041183e-03</internalNodes>
          <leafValues>
            1.4344196021556854e-01 -2.4616433680057526e-01</leafValues></_>
        <_>
          <internalNodes>
            0 -1 268 1.4334118459373713e-03</internalNodes>
          <leafValues>
            -1.2667858600616455e-01 3.1279948353767395e-01</leafValues></_>
        <_>
          <internalNodes>
            0 -1 491 2.5531095452606678e-03</internalNodes>
          <leafValues>
            8.9382648468017578e-02 -4.5749631524085999e-01</leafValues></_>
        <_>
          <internalNodes>
            0 -1 529 -1.0928208939731121e-04</internalNodes>
          <leafValues>
            -1.9676811993122101e-01 1.9663402438163757e-01</leafValues></_>
        <_>
          <internalNodes>
            0 -1 17 -4.3795877136290073e-03</internalNodes>
          <leafValues>
            3.1461217999458313e-01 -1.2628149986267090e-01</leafValues></_>
        <_>
          <internalNodes>
            0 -1 159 7.6208055019378662e-02</internalNodes>
          <leafValues>
            -9.0567238628864288e-02 3.8832387328147888e-01</leafValues></_>
        <_>
          <internalNodes>
            0 -1 226 -5.2752852439880371e-02</internalNodes>
          <leafValues>
            -6.1183518171310425e-01 5.8756757527589798e-02</leafValues></_>
        <_>
          <internalNodes>
            0 -1 361 7.3631166014820337e-04</internalNodes>
          <leafValues>
            1.2478866428136826e-01 -2.9135200381278992e-01</leafValues></_>
        <_>
          <internalNodes>
            0 -1 61 4.4119148515164852e-03</internalNodes>
          <leafValues>
            -1.1448290199041367e-01 3.3354657888412476e-01</leafValues></_>
        <_>
          <internalNodes>
            0 -1 415 -3.4616410266608000e-03</internalNodes>
          <leafValues>
            5.3704845905303955e-01 -6.5523803234100342e-02</leafValues></_>
        <_>
          <internalNodes>
            0 -1 250 2.8108181431889534e-03</internalNodes>
          <leafValues>
            -1.2747260928153992e-01 2.8311532735824585e-01</leafValues></_>
        <_>
          <internalNodes>
            0 -1 441 -4.9606047105044127e-04</internalNodes>
          <leafValues>
            -4.3242734670639038e-01 9.0593628585338593e-02</leafValues></_>
        <_>
          <internalNodes>
            0 -1 21 4.0666490793228149e-02</internalNodes>
          <leafValues>
            4.3978933244943619e-02 -6.8891018629074097e-01</leafValues></_>
        <_>
          <internalNodes>
            0 -1 3 7.5610436033457518e-04</internalNodes>
          <leafValues>
            9.0772263705730438e-02 -3.3211147785186768e-01</leafValues></_>
        <_>
          <internalNodes>
            0 -1 81 1.8685066606849432e-03</internalNodes>
          <leafValues>
            1.6054201126098633e-01 -1.9441856443881989e-01</leafValues></_></weakClassifiers></_>
    <!-- stage 11 -->
    <_>
      <maxWeakCount>35</maxWeakCount>
      <stageThreshold>-1.1172957420349121e+00</stageThreshold>
      <weakClassifiers>
        <_>
          <internalNodes>
            0 -1 527 -4.0272146463394165e-02</internalNodes>
          <leafValues>
            3.0841121077537537e-01 -2.6916801929473877e-01</leafValues></_>
        <_>
          <internalNodes>
            0 -1 423 -1.8200069898739457e-03</internalNodes>
          <leafValues>
            2.6769834756851196e-01 -2.2870832681655884e-01</leafValues></_>
        <_>
          <internalNodes>
            0 -1 512 1.9458821043372154e-03</internalNodes>
          <leafValues>
            1.0039414465427399e-01 -4.9918881058692932e-01</leafValues></_>
        <_>
          <internalNodes>
            0 -1 6 4.8617970198392868e-02</internalNodes>
          <leafValues>
            -1.7712652683258057e-01 2.7607178688049316e-01</leafValues></_>
        <_>
          <internalNodes>
            0 -1 483 -4.3846154585480690e-03</internalNodes>
          <leafValues>
            5.2194374799728394e-01 -1.1464370787143707e-01</leafValues></_>
        <_>
          <internalNodes>
            0 -1 351 -5.6261338293552399e-02</internalNodes>
          <leafValues>
            3.5117250680923462e-01 -1.7214712500572205e-01</leafValues></_>
        <_>
          <internalNodes>
            0 -1 295 -3.2400027848780155e-03</internalNodes>
          <leafValues>
            5.2326470613479614e-01 -6.6169477999210358e-02</leafValues></_>
        <_>
          <internalNodes>
            0 -1 456 -7.6946683228015900e-02</internalNodes>
          <leafValues>
            -4.7090160846710205e-01 8.0282688140869141e-02</leafValues></_>
        <_>
          <internalNodes>
            0 -1 239 -1.4212676323950291e-03</internalNodes>
          <leafValues>
            3.8569733500480652e-01 -1.0895765572786331e-01</leafValues></_>
        <_>
          <internalNodes>
            0 -1 474 5.9887431561946869e-03</internalNodes>
          <leafValues>
            -1.0189507901668549e-01 4.4191545248031616e-01</leafValues></_>
        <_>
          <internalNodes>
            0 -1 255 -2.5373294949531555e-02</internalNodes>
          <leafValues>
            3.5042873024940491e-01 -9.2537149786949158e-02</leafValues></_>
        <_>
          <internalNodes>
            0 -1 55 2.7978420257568359e-03</internalNodes>
          <leafValues>
            -9.3859761953353882e-02 4.1650220751762390e-01</leafValues></_>
        <_>
          <internalNodes>
            0 -1 168 1.8957871943712234e-02</internalNodes>
          <leafValues>
            3.3182211220264435e-02 -9.6107065677642822e-01</leafValues></_>
        <_>
          <internalNodes>
            0 -1 307 2.1116901189088821e-03</internalNodes>
          <leafValues>
            7.1584507822990417e-02 -4.5952689647674561e-01</leafValues></_>
        <_>
          <internalNodes>
            0 -1 46 -4.8088496550917625e-03</internalNodes>
          <leafValues>
            4.5891550183296204e-01 -8.8578820228576660e-02</leafValues></_>
        <_>
          <internalNodes>
            0 -1 553 1.0341191664338112e-02</internalNodes>
          <leafValues>
            -1.2193778157234192e-01 3.1941121816635132e-01</leafValues></_>
        <_>
          <internalNodes>
            0 -1 493 1.5305267879739404e-03</internalNodes>
          <leafValues>
            1.0438827425241470e-01 -4.3864208459854126e-01</leafValues></_>
        <_>
          <internalNodes>
            0 -1 238 8.6271361215040088e-04</internalNodes>
          <leafValues>
            -7.8381560742855072e-02 5.1811313629150391e-01</leafValues></_>
        <_>
          <internalNodes>
            0 -1 582 -4.3435199186205864e-03</internalNodes>
          <leafValues>
            4.1141724586486816e-01 -8.3503238856792450e-02</leafValues></_>
        <_>
          <internalNodes>
            0 -1 284 -4.5157517306506634e-03</internalNodes>
          <leafValues>
            3.5324677824974060e-01 -1.0338051617145538e-01</leafValues></_>
        <_>
          <internalNodes>
            0 -1 28 -2.9545556753873825e-04</internalNodes>
          <leafValues>
            -3.7473022937774658e-01 1.0854725539684296e-01</leafValues></_>
        <_>
          <internalNodes>
            0 -1 8 4.5268377289175987e-03</internalNodes>
          <leafValues>
            5.6474588811397552e-02 -5.6452894210815430e-01</leafValues></_>
        <_>
          <internalNodes>
            0 -1 117 -2.4889402091503143e-01</internalNodes>
          <leafValues>
            8.4554159641265869e-01 -4.4544465839862823e-02</leafValues></_>
        <_>
          <internalNodes>
            0 -1 598 -2.8756100684404373e-02</internalNodes>
          <leafValues>
            -5.1017063856124878e-01 7.7866457402706146e-02</leafValues></_>
        <_>
          <internalNodes>
            0 -1 497 4.7012725844979286e-03</internalNodes>
          <leafValues>
            -6.5976351499557495e-02 5.7937967777252197e-01</leafValues></_>
        <_>
          <internalNodes>
            0 -1 281 2.6971438899636269e-02</internalNodes>
          <leafValues>
            4.7849334776401520e-02 -8.3837449550628662e-01</leafValues></_>
        <_>
          <internalNodes>
            0 -1 275 -3.6977045238018036e-04</internalNodes>
          <leafValues>
            3.3676883578300476e-01 -1.1009977012872696e-01</leafValues></_>
        <_>
          <internalNodes>
            0 -1 579 -2.4875779636204243e-03</internalNodes>
          <leafValues>
            -5.0780767202377319e-01 7.4657946825027466e-02</leafValues></_>
        <_>
          <internalNodes>
            0 -1 601 3.6963676102459431e-03</internalNodes>
          <leafValues>
            -8.5354231297969818e-02 4.5895603299140930e-01</leafValues></_>
        <_>
          <internalNodes>
            0 -1 520 8.8159546256065369e-02</internalNodes>
          <leafValues>
            -1.2749853730201721e-01 2.3693022131919861e-01</leafValues></_>
        <_>
          <internalNodes>
            0 -1 68 -3.4953411668539047e-03</internalNodes>
          <leafValues>
            2.1102021634578705e-01 -1.5938475728034973e-01</leafValues></_>
        <_>
          <internalNodes>
            0 -1 102 -3.1261350959539413e-02</internalNodes>
          <leafValues>
            7.4086362123489380e-01 -5.0924334675073624e-02</leafValues></_>
        <_>
          <internalNodes>
            0 -1 42 1.1780827306210995e-02</internalNodes>
          <leafValues>
            -1.3077923655509949e-01 2.5254184007644653e-01</leafValues></_>
        <_>
          <internalNodes>
            0 -1 143 1.5999849885702133e-02</internalNodes>
          <leafValues>
            -8.2260638475418091e-02 4.3935787677764893e-01</leafValues></_>
        <_>
          <internalNodes>
            0 -1 261 1.3938490301370621e-03</internalNodes>
          <leafValues>
            -1.2828786671161652e-01 2.7795255184173584e-01</leafValues></_></weakClassifiers></_>
    <!-- stage 12 -->
    <_>
      <maxWeakCount>27</maxWeakCount>
      <stageThreshold>-1.0415546894073486e+00</stageThreshold>
      <weakClassifiers>
        <_>
          <internalNodes>
            0 -1 9 -1.4710344374179840e-02</internalNodes>
          <leafValues>
            -5.2958577871322632e-01 1.8959730863571167e-01</leafValues></_>
        <_>
          <internalNodes>
            0 -1 462 -7.0765046402812004e-03</internalNodes>
          <leafValues>
            -4.1194915771484375e-01 1.6980610787868500e-01</leafValues></_>
        <_>
          <internalNodes>
            0 -1 217 -8.3177983760833740e-02</internalNodes>
          <leafValues>
            5.3650218248367310e-01 -1.3731908798217773e-01</leafValues></_>
        <_>
          <internalNodes>
            0 -1 419 8.9548731921240687e-04</internalNodes>
          <leafValues>
            -2.2868727147579193e-01 2.7619034051895142e-01</leafValues></_>
        <_>
          <internalNodes>
            0 -1 398 -1.1179095134139061e-02</internalNodes>
          <leafValues>
            3.2122838497161865e-01 -1.5990881621837616e-01</leafValues></_>
        <_>
          <internalNodes>
            0 -1 259 -1.4384663105010986e-01</internalNodes>
          <leafValues>
            2.4758966267108917e-01 -2.1308110654354095e-01</leafValues></_>
        <_>
          <internalNodes>
            0 -1 145 1.5850245952606201e-01</internalNodes>
          <leafValues>
            -1.3098186254501343e-01 3.4694805741310120e-01</leafValues></_>
        <_>
          <internalNodes>
            0 -1 39 -2.4880400300025940e-01</internalNodes>
          <leafValues>
            7.5287902355194092e-01 -6.2655255198478699e-02</leafValues></_>
        <_>
          <internalNodes>
            0 -1 83 -1.1074534058570862e-01</internalNodes>
          <leafValues>
            -6.3517558574676514e-01 8.8002488017082214e-02</leafValues></_>
        <_>
          <internalNodes>
            0 -1 593 5.5993412388488650e-04</internalNodes>
          <leafValues>
            9.9819034337997437e-02 -4.9535363912582397e-01</leafValues></_>
        <_>
          <internalNodes>
            0 -1 23 -1.1341172648826614e-04</internalNodes>
          <leafValues>
            -3.2778099179267883e-01 1.2583881616592407e-01</leafValues></_>
        <_>
          <internalNodes>
            0 -1 252 -3.6783167161047459e-03</internalNodes>
          <leafValues>
            2.8322353959083557e-01 -1.7343458533287048e-01</leafValues></_>
        <_>
          <internalNodes>
            0 -1 501 -2.2118086053524166e-04</internalNodes>
          <leafValues>
            -3.4053376317024231e-01 1.1032113432884216e-01</leafValues></_>
        <_>
          <internalNodes>
            0 -1 93 -2.5721658021211624e-03</internalNodes>
          <leafValues>
            3.9410209655761719e-01 -1.1222695559263229e-01</leafValues></_>
        <_>
          <internalNodes>
            0 -1 56 -4.2360248044133186e-03</internalNodes>
          <leafValues>
            3.0059298872947693e-01 -1.3643731176853180e-01</leafValues></_>
        <_>
          <internalNodes>
            0 -1 479 4.8632752150297165e-03</internalNodes>
          <leafValues>
            -1.1605491489171982e-01 3.5601574182510376e-01</leafValues></_>
        <_>
          <internalNodes>
            0 -1 356 -1.2380594387650490e-02</internalNodes>
          <leafValues>
            3.0347132682800293e-01 -1.6716985404491425e-01</leafValues></_>
        <_>
          <internalNodes>
            0 -1 602 7.9829320311546326e-03</internalNodes>
          <leafValues>
            -1.0148857533931732e-01 4.4962584972381592e-01</leafValues></_>
        <_>
          <internalNodes>
            0 -1 543 9.4441063702106476e-03</internalNodes>
          <leafValues>
            -1.2903194129467010e-01 3.1026962399482727e-01</leafValues></_>
        <_>
          <internalNodes>
            0 -1 416 8.6690206080675125e-04</internalNodes>
          <leafValues>
            7.7482357621192932e-02 -4.7021558880805969e-01</leafValues></_>
        <_>
          <internalNodes>
            0 -1 532 -1.9795815460383892e-03</internalNodes>
          <leafValues>
            5.6038326025009155e-01 -7.7935978770256042e-02</leafValues></_>
        <_>
          <internalNodes>
            0 -1 357 3.8704257458448410e-03</internalNodes>
          <leafValues>
            -5.5827796459197998e-02 6.4278739690780640e-01</leafValues></_>
        <_>
          <internalNodes>
            0 -1 292 1.7587579786777496e-03</internalNodes>
          <leafValues>
            -9.9239677190780640e-02 3.8878399133682251e-01</leafValues></_>
        <_>
          <internalNodes>
            0 -1 395 3.6250380799174309e-04</internalNodes>
          <leafValues>
            1.3870610296726227e-01 -2.9873833060264587e-01</leafValues></_>
        <_>
          <internalNodes>
            0 -1 464 -9.5130281988531351e-04</internalNodes>
          <leafValues>
            -3.6493805050849915e-01 1.0084667801856995e-01</leafValues></_>
        <_>
          <internalNodes>
            0 -1 18 1.1293287575244904e-01</internalNodes>
          <leafValues>
            -1.5239706635475159e-01 3.1810480356216431e-01</leafValues></_>
        <_>
          <internalNodes>
            0 -1 597 -1.0415912605822086e-02</internalNodes>
          <leafValues>
            5.8528995513916016e-01 -6.6095747053623199e-02</leafValues></_></weakClassifiers></_>
    <!-- stage 13 -->
    <_>
      <maxWeakCount>34</maxWeakCount>
      <stageThreshold>-9.1938877105712891e-01</stageThreshold>
      <weakClassifiers>
        <_>
          <internalNodes>
            0 -1 5 5.1646701991558075e-02</internalNodes>
          <leafValues>
            -2.8478059172630310e-01 2.1706399321556091e-01</leafValues></_>
        <_>
          <internalNodes>
            0 -1 343 1.6718988772481680e-03</internalNodes>
          <leafValues>
            -1.1809150874614716e-01 3.1149399280548096e-01</leafValues></_>
        <_>
          <internalNodes>
            0 -1 279 -2.4616415612399578e-03</internalNodes>
          <leafValues>
            2.9053664207458496e-01 -1.1951690912246704e-01</leafValues></_>
        <_>
          <internalNodes>
            0 -1 325 1.7548181116580963e-02</internalNodes>
          <leafValues>
            -9.8938912153244019e-02 3.6369079351425171e-01</leafValues></_>
        <_>
          <internalNodes>
            0 -1 615 -7.4235554784536362e-03</internalNodes>
          <leafValues>
            4.2086130380630493e-01 -1.0793926566839218e-01</leafValues></_>
        <_>
          <internalNodes>
            0 -1 306 2.0080381073057652e-03</internalNodes>
          <leafValues>
            9.2848338186740875e-02 -4.6601945161819458e-01</leafValues></_>
        <_>
          <internalNodes>
            0 -1 605 -5.2219447679817677e-03</internalNodes>
          <leafValues>
            4.4688493013381958e-01 -7.5351037085056305e-02</leafValues></_>
        <_>
          <internalNodes>
            0 -1 552 -1.1766080278903246e-03</internalNodes>
          <leafValues>
            3.6865553259849548e-01 -9.7526408731937408e-02</leafValues></_>
        <_>
          <internalNodes>
            0 -1 257 1.1016030330210924e-03</internalNodes>
          <leafValues>
            -9.1423578560352325e-02 4.0107873082160950e-01</leafValues></_>
        <_>
          <internalNodes>
            0 -1 1 -6.2044477090239525e-04</internalNodes>
          <leafValues>
            -4.3226015567779541e-01 8.5345000028610229e-02</leafValues></_>
        <_>
          <internalNodes>
            0 -1 179 4.8912973143160343e-03</internalNodes>
          <leafValues>
            -6.8842314183712006e-02 5.2646654844284058e-01</leafValues></_>
        <_>
          <internalNodes>
            0 -1 345 -1.0752362012863159e-01</internalNodes>
          <leafValues>
            -8.1552273035049438e-01 4.4277030974626541e-02</leafValues></_>
        <_>
          <internalNodes>
            0 -1 80 3.5369342658668756e-03</internalNodes>
          <leafValues>
            9.8800465464591980e-02 -3.8106754422187805e-01</leafValues></_>
        <_>
          <internalNodes>
            0 -1 205 -3.3265352249145508e-04</internalNodes>
          <leafValues>
            -3.3887729048728943e-01 1.5046885609626770e-01</leafValues></_>
        <_>
          <internalNodes>
            0 -1 20 2.1259330213069916e-01</internalNodes>
          <leafValues>
            4.2604669928550720e-02 -8.3687096834182739e-01</leafValues></_>
        <_>
          <internalNodes>
            0 -1 321 3.0211528763175011e-02</internalNodes>
          <leafValues>
            -1.3732960820198059e-01 2.9799515008926392e-01</leafValues></_>
        <_>
          <internalNodes>
            0 -1 141 1.4232659339904785e-01</internalNodes>
          <leafValues>
            -1.2798650562763214e-01 3.8231050968170166e-01</leafValues></_>
        <_>
          <internalNodes>
            0 -1 15 6.9040595553815365e-04</internalNodes>
          <leafValues>
            9.3092896044254303e-02 -4.4993513822555542e-01</leafValues></_>
        <_>
          <internalNodes>
            0 -1 230 3.6293832818046212e-04</internalNodes>
          <leafValues>
            1.2386881560087204e-01 -2.6184603571891785e-01</leafValues></_>
        <_>
          <internalNodes>
            0 -1 94 -9.5454296097159386e-03</internalNodes>
          <leafValues>
            -6.5615093708038330e-01 4.2786650359630585e-02</leafValues></_>
        <_>
          <internalNodes>
            0 -1 422 6.3875298947095871e-03</internalNodes>
          <leafValues>
            4.9434650689363480e-02 -6.8130874633789063e-01</leafValues></_>
        <_>
          <internalNodes>
            0 -1 84 -1.5258356928825378e-02</internalNodes>
          <leafValues>
            6.8276208639144897e-01 -6.3472703099250793e-02</leafValues></_>
        <_>
          <internalNodes>
            0 -1 533 1.5850765630602837e-03</internalNodes>
          <leafValues>
            -7.4193738400936127e-02 3.9832234382629395e-01</leafValues></_>
        <_>
          <internalNodes>
            0 -1 487 -7.7756831888109446e-04</internalNodes>
          <leafValues>
            -3.5342919826507568e-01 1.0216099023818970e-01</leafValues></_>
        <_>
          <internalNodes>
            0 -1 48 1.6996735706925392e-02</internalNodes>
          <leafValues>
            -1.1032485216856003e-01 3.1865078210830688e-01</leafValues></_>
        <_>
          <internalNodes>
            0 -1 103 -1.0305095929652452e-03</internalNodes>
          <leafValues>
            2.2390970587730408e-01 -1.6694824397563934e-01</leafValues></_>
        <_>
          <internalNodes>
            0 -1 134 6.5218715462833643e-04</internalNodes>
          <leafValues>
            -8.8782653212547302e-02 5.0230461359024048e-01</leafValues></_>
        <_>
          <internalNodes>
            0 -1 70 8.4296945715323091e-04</internalNodes>
          <leafValues>
            1.0729906708002090e-01 -3.8543266057968140e-01</leafValues></_>
        <_>
          <internalNodes>
            0 -1 426 -1.0766277555376291e-03</internalNodes>
          <leafValues>
            2.9157871007919312e-01 -1.4177440106868744e-01</leafValues></_>
        <_>
          <internalNodes>
            0 -1 603 4.2690247297286987e-02</internalNodes>
          <leafValues>
            9.2688076198101044e-02 -4.5482802391052246e-01</leafValues></_>
        <_>
          <internalNodes>
            0 -1 123 -1.4533026143908501e-02</internalNodes>
          <leafValues>
            2.7187058329582214e-01 -1.3898190855979919e-01</leafValues></_>
        <_>
          <internalNodes>
            0 -1 335 1.3449278194457293e-03</internalNodes>
          <leafValues>
            1.9383554160594940e-01 -2.0930743217468262e-01</leafValues></_>
        <_>
          <internalNodes>
            0 -1 69 -1.0567777790129185e-02</internalNodes>
          <leafValues>
            -8.3360797166824341e-01 4.8749025911092758e-02</leafValues></_>
        <_>
          <internalNodes>
            0 -1 498 -1.3676895759999752e-03</internalNodes>
          <leafValues>
            3.1504172086715698e-01 -1.1906312406063080e-01</leafValues></_></weakClassifiers></_>
    <!-- stage 14 -->
    <_>
      <maxWeakCount>25</maxWeakCount>
      <stageThreshold>-8.9936286211013794e-01</stageThreshold>
      <weakClassifiers>
        <_>
          <internalNodes>
            0 -1 156 2.9018472880125046e-02</internalNodes>
          <leafValues>
            -3.8385826349258423e-01 3.0281689763069153e-01</leafValues></_>
        <_>
          <internalNodes>
            0 -1 186 2.0410042256116867e-02</internalNodes>
          <leafValues>
            9.6759967505931854e-02 -6.4413356781005859e-01</leafValues></_>
        <_>
          <internalNodes>
            0 -1 458 -1.7367115942761302e-03</internalNodes>
          <leafValues>
            -3.5284310579299927e-01 1.4844015240669250e-01</leafValues></_>
        <_>
          <internalNodes>
            0 -1 155 -2.6777314487844706e-03</internalNodes>
          <leafValues>
            6.1850786209106445e-01 -6.1674758791923523e-02</leafValues></_>
        <_>
          <internalNodes>
            0 -1 461 2.6899231597781181e-03</internalNodes>
          <leafValues>
            5.8442264795303345e-02 -4.6222493052482605e-01</leafValues></_>
        <_>
          <internalNodes>
            0 -1 372 9.9096877966076136e-04</internalNodes>
          <leafValues>
            -1.3512150943279266e-01 2.7974173426628113e-01</leafValues></_>
        <_>
          <internalNodes>
            0 -1 265 -1.1040020734071732e-02</internalNodes>
          <leafValues>
            2.9429021477699280e-01 -1.1356610059738159e-01</leafValues></_>
        <_>
          <internalNodes>
            0 -1 296 -2.7016149833798409e-02</internalNodes>
          <leafValues>
            4.0870082378387451e-01 -1.2954339385032654e-01</leafValues></_>
        <_>
          <internalNodes>
            0 -1 518 5.7667955756187439e-02</internalNodes>
          <leafValues>
            -1.7616164684295654e-01 2.8205749392509460e-01</leafValues></_>
        <_>
          <internalNodes>
            0 -1 182 3.8266912102699280e-02</internalNodes>
          <leafValues>
            7.1546137332916260e-02 -5.0483345985412598e-01</leafValues></_>
        <_>
          <internalNodes>
            0 -1 198 -6.3052290352061391e-04</internalNodes>
          <leafValues>
            2.9379469156265259e-01 -1.1289460957050323e-01</leafValues></_>
        <_>
          <internalNodes>
            0 -1 393 -3.6738794296979904e-03</internalNodes>
          <leafValues>
            -6.4022767543792725e-01 4.7933135181665421e-02</leafValues></_>
        <_>
          <internalNodes>
            0 -1 66 -9.2325322329998016e-03</internalNodes>
          <leafValues>
            -4.5816335082054138e-01 6.6268458962440491e-02</leafValues></_>
        <_>
          <internalNodes>
            0 -1 417 4.2565884068608284e-03</internalNodes>
          <leafValues>
            -1.3801999390125275e-01 2.3950746655464172e-01</leafValues></_>
        <_>
          <internalNodes>
            0 -1 439 1.4065231662243605e-03</internalNodes>
          <leafValues>
            8.8945247232913971e-02 -4.1065812110900879e-01</leafValues></_>
        <_>
          <internalNodes>
            0 -1 363 4.0604814887046814e-02</internalNodes>
          <leafValues>
            4.0432583540678024e-02 -8.1554126739501953e-01</leafValues></_>
        <_>
          <internalNodes>
            0 -1 47 1.1730944737792015e-02</internalNodes>
          <leafValues>
            -9.4043739140033722e-02 4.0373185276985168e-01</leafValues></_>
        <_>
          <internalNodes>
            0 -1 95 1.4026839286088943e-02</internalNodes>
          <leafValues>
            -7.9073734581470490e-02 4.2761507630348206e-01</leafValues></_>
        <_>
          <internalNodes>
            0 -1 273 1.2997523881494999e-03</internalNodes>
          <leafValues>
            -7.3030501604080200e-02 4.2893528938293457e-01</leafValues></_>
        <_>
          <internalNodes>
            0 -1 37 2.3102240636944771e-02</internalNodes>
          <leafValues>
            6.2759913504123688e-02 -5.6128877401351929e-01</leafValues></_>
        <_>
          <internalNodes>
            0 -1 170 -1.7873458564281464e-02</internalNodes>
          <leafValues>
            -4.4768759608268738e-01 6.9754995405673981e-02</leafValues></_>
        <_>
          <internalNodes>
            0 -1 273 -1.0144603438675404e-03</internalNodes>
          <leafValues>
            3.4380358457565308e-01 -9.4126299023628235e-02</leafValues></_>
        <_>
          <internalNodes>
            0 -1 240 -3.6667860695160925e-04</internalNodes>
          <leafValues>
            -3.0859687924385071e-01 1.1369390785694122e-01</leafValues></_>
        <_>
          <internalNodes>
            0 -1 222 1.3342315796762705e-03</internalNodes>
          <leafValues>
            4.4906277209520340e-02 -7.7079468965530396e-01</leafValues></_>
        <_>
          <internalNodes>
            0 -1 190 5.2804360166192055e-04</internalNodes>
          <leafValues>
            1.4703658223152161e-01 -2.3949082195758820e-01</leafValues></_></weakClassifiers></_>
    <!-- stage 15 -->
    <_>
      <maxWeakCount>42</maxWeakCount>
      <stageThreshold>-1.0135651826858521e+00</stageThreshold>
      <weakClassifiers>
        <_>
          <internalNodes>
            0 -1 27 -5.9146005660295486e-03</internalNodes>
          <leafValues>
            -4.6774193644523621e-01 7.2886295616626740e-02</leafValues></_>
        <_>
          <internalNodes>
            0 -1 332 2.9657287523150444e-02</internalNodes>
          <leafValues>
            -1.0907598584890366e-01 4.3665444850921631e-01</leafValues></_>
        <_>
          <internalNodes>
            0 -1 62 -1.3982826843857765e-02</internalNodes>
          <leafValues>
            2.3828762769699097e-01 -1.8156154453754425e-01</leafValues></_>
        <_>
          <internalNodes>
            0 -1 375 8.3006709814071655e-02</internalNodes>
          <leafValues>
            -1.1632711440324783e-01 3.1370997428894043e-01</leafValues></_>
        <_>
          <internalNodes>
            0 -1 328 -3.9861656725406647e-02</internalNodes>
          <leafValues>
            2.8400221467018127e-01 -1.2059024721384048e-01</leafValues></_>
        <_>
          <internalNodes>
            0 -1 578 -9.4318296760320663e-03</internalNodes>
          <leafValues>
            2.5589379668235779e-01 -1.6805444657802582e-01</leafValues></_>
        <_>
          <internalNodes>
            0 -1 211 3.7155270576477051e-02</internalNodes>
          <leafValues>
            7.7836759388446808e-02 -4.8561793565750122e-01</leafValues></_>
        <_>
          <internalNodes>
            0 -1 97 -1.3574436306953430e-03</internalNodes>
          <leafValues>
            3.1738650798797607e-01 -1.2279689311981201e-01</leafValues></_>
        <_>
          <internalNodes>
            0 -1 108 -5.7068099267780781e-03</internalNodes>
          <leafValues>
            2.6266232132911682e-01 -1.1263617128133774e-01</leafValues></_>
        <_>
          <internalNodes>
            0 -1 567 -3.2259774161502719e-04</internalNodes>
          <leafValues>
            -2.5720095634460449e-01 1.2206114083528519e-01</leafValues></_>
        <_>
          <internalNodes>
            0 -1 568 2.5811637751758099e-03</internalNodes>
          <leafValues>
            6.3752084970474243e-02 -4.5846578478813171e-01</leafValues></_>
        <_>
          <internalNodes>
            0 -1 236 -2.5284083094447851e-03</internalNodes>
          <leafValues>
            3.2635214924812317e-01 -9.4337202608585358e-02</leafValues></_>
        <_>
          <internalNodes>
            0 -1 312 1.8611603882163763e-03</internalNodes>
          <leafValues>
            -1.2218325585126877e-01 2.6544669270515442e-01</leafValues></_>
        <_>
          <internalNodes>
            0 -1 338 1.3442490017041564e-03</internalNodes>
          <leafValues>
            1.2180212140083313e-01 -3.0899798870086670e-01</leafValues></_>
        <_>
          <internalNodes>
            0 -1 575 -2.4463785812258720e-03</internalNodes>
          <leafValues>
            6.2668937444686890e-01 -5.3572077304124832e-02</leafValues></_>
        <_>
          <internalNodes>
            0 -1 319 1.0862496681511402e-02</internalNodes>
          <leafValues>
            6.0198526829481125e-02 -5.7797044515609741e-01</leafValues></_>
        <_>
          <internalNodes>
            0 -1 624 -2.0971251069568098e-04</internalNodes>
          <leafValues>
            -2.5843697786331177e-01 1.2904050946235657e-01</leafValues></_>
        <_>
          <internalNodes>
            0 -1 31 -7.5258791446685791e-02</internalNodes>
          <leafValues>
            -3.3943867683410645e-01 7.8412532806396484e-02</leafValues></_>
        <_>
          <internalNodes>
            0 -1 289 4.4597480446100235e-02</internalNodes>
          <leafValues>
            7.5417011976242065e-02 -3.7072816491127014e-01</leafValues></_>
        <_>
          <internalNodes>
            0 -1 248 1.1681918054819107e-02</internalNodes>
          <leafValues>
            -1.7828702926635742e-01 2.0351475477218628e-01</leafValues></_>
        <_>
          <internalNodes>
            0 -1 129 -9.5873899757862091e-02</internalNodes>
          <leafValues>
            4.1199019551277161e-01 -7.3757596313953400e-02</leafValues></_>
        <_>
          <internalNodes>
            0 -1 468 1.0236096382141113e-01</internalNodes>
          <leafValues>
            -1.6414390504360199e-01 2.3681192100048065e-01</leafValues></_>
        <_>
          <internalNodes>
            0 -1 294 -1.6454930882900953e-03</internalNodes>
          <leafValues>
            3.9404851198196411e-01 -1.0740469396114349e-01</leafValues></_>
        <_>
          <internalNodes>
            0 -1 399 -5.2931839600205421e-03</internalNodes>
          <leafValues>
            2.2024828195571899e-01 -1.5146316587924957e-01</leafValues></_>
        <_>
          <internalNodes>
            0 -1 542 -9.0717226266860962e-03</internalNodes>
          <leafValues>
            3.7068396806716919e-01 -9.3381159007549286e-02</leafValues></_>
        <_>
          <internalNodes>
            0 -1 43 -1.0440232232213020e-02</internalNodes>
          <leafValues>
            2.3711755871772766e-01 -1.3266558945178986e-01</leafValues></_>
        <_>
          <internalNodes>
            0 -1 173 -7.2688031941652298e-03</internalNodes>
          <leafValues>
            2.0769698917865753e-01 -1.8551589548587799e-01</leafValues></_>
        <_>
          <internalNodes>
            0 -1 237 1.0352073237299919e-02</internalNodes>
          <leafValues>
            4.4703416526317596e-02 -6.9423425197601318e-01</leafValues></_>
        <_>
          <internalNodes>
            0 -1 545 8.8257243623957038e-04</internalNodes>
          <leafValues>
            -7.9078853130340576e-02 4.7193381190299988e-01</leafValues></_>
        <_>
          <internalNodes>
            0 -1 63 4.3681181967258453e-02</internalNodes>
          <leafValues>
            -4.7363989055156708e-02 5.7688009738922119e-01</leafValues></_>
        <_>
          <internalNodes>
            0 -1 74 2.0849827677011490e-02</internalNodes>
          <leafValues>
            -1.5751460194587708e-01 2.3520451784133911e-01</leafValues></_>
        <_>
          <internalNodes>
            0 -1 452 -5.1061525940895081e-02</internalNodes>
          <leafValues>
            -4.3021568655967712e-01 7.0774950087070465e-02</leafValues></_>
        <_>
          <internalNodes>
            0 -1 195 -1.2540137395262718e-03</internalNodes>
          <leafValues>
            2.9113149642944336e-01 -1.1164940148591995e-01</leafValues></_>
        <_>
          <internalNodes>
            0 -1 536 8.1376027083024383e-04</internalNodes>
          <leafValues>
            -1.3676559925079346e-01 2.3227584362030029e-01</leafValues></_>
        <_>
          <internalNodes>
            0 -1 547 8.8414670899510384e-03</internalNodes>
          <leafValues>
            -1.0598523914813995e-01 2.6274213194847107e-01</leafValues></_>
        <_>
          <internalNodes>
            0 -1 36 4.6307005686685443e-04</internalNodes>
          <leafValues>
            1.3965299725532532e-01 -2.1482351422309875e-01</leafValues></_>
        <_>
          <internalNodes>
            0 -1 304 1.7696642316877842e-03</internalNodes>
          <leafValues>
            7.3459215462207794e-02 -4.1478055715560913e-01</leafValues></_>
        <_>
          <internalNodes>
            0 -1 157 -1.4183787861838937e-03</internalNodes>
          <leafValues>
            3.4440544247627258e-01 -8.6891971528530121e-02</leafValues></_>
        <_>
          <internalNodes>
            0 -1 386 -5.6007215753197670e-03</internalNodes>
          <leafValues>
            -3.7620916962623596e-01 8.0429673194885254e-02</leafValues></_>
        <_>
          <internalNodes>
            0 -1 301 -3.1600699294358492e-03</internalNodes>
          <leafValues>
            5.5898654460906982e-01 -5.0806030631065369e-02</leafValues></_>
        <_>
          <internalNodes>
            0 -1 115 -4.1799668222665787e-02</internalNodes>
          <leafValues>
            -9.0487957000732422e-01 3.8696583360433578e-02</leafValues></_>
        <_>
          <internalNodes>
            0 -1 282 2.0332681015133858e-03</internalNodes>
          <leafValues>
            -1.4920155704021454e-01 1.9951540231704712e-01</leafValues></_></weakClassifiers></_>
    <!-- stage 16 -->
    <_>
      <maxWeakCount>45</maxWeakCount>
      <stageThreshold>-9.5447880029678345e-01</stageThreshold>
      <weakClassifiers>
        <_>
          <internalNodes>
            0 -1 274 -8.7262958288192749e-02</internalNodes>
          <leafValues>
            1.9314286112785339e-01 -3.0312186479568481e-01</leafValues></_>
        <_>
          <internalNodes>
            0 -1 449 -2.3599270731210709e-02</internalNodes>
          <leafValues>
            -6.5062171220779419e-01 6.1141446232795715e-02</leafValues></_>
        <_>
          <internalNodes>
            0 -1 484 4.0300018736161292e-04</internalNodes>
          <leafValues>
            1.7140094935894012e-01 -2.2858630120754242e-01</leafValues></_>
        <_>
          <internalNodes>
            0 -1 116 -4.2827833443880081e-02</internalNodes>
          <leafValues>
            6.2010151147842407e-01 -6.6053859889507294e-02</leafValues></_>
        <_>
          <internalNodes>
            0 -1 515 9.6873492002487183e-03</internalNodes>
          <leafValues>
            -1.0567806661128998e-01 3.7804403901100159e-01</leafValues></_>
        <_>
          <internalNodes>
            0 -1 396 -9.2696798965334892e-03</internalNodes>
          <leafValues>
            -7.3834329843521118e-01 6.2111791223287582e-02</leafValues></_>
        <_>
          <internalNodes>
            0 -1 263 1.7318485770374537e-03</internalNodes>
          <leafValues>
            7.9910971224308014e-02 -3.6207023262977600e-01</leafValues></_>
        <_>
          <internalNodes>
            0 -1 246 8.9646473526954651e-02</internalNodes>
          <leafValues>
            -2.2425645589828491e-01 1.2810546159744263e-01</leafValues></_>
        <_>
          <internalNodes>
            0 -1 402 2.6946522295475006e-02</internalNodes>
          <leafValues>
            5.5394798517227173e-02 -5.3862082958221436e-01</leafValues></_>
        <_>
          <internalNodes>
            0 -1 427 -3.8118481636047363e-02</internalNodes>
          <leafValues>
